tree
version=v4
num_class=1
num_tree_per_iteration=1
label_index=0
max_feature_idx=40
objective=binary sigmoid:1
feature_names=Hour HR O2Sat Temp SBP MAP DBP Resp EtCO2 BaseExcess HCO3 FiO2 pH PaCO2 SaO2 AST BUN Alkalinephos Calcium Chloride Creatinine Bilirubin_direct Glucose Lactate Magnesium Phosphate Potassium Bilirubin_total TroponinI Hct Hgb PTT WBC Fibrinogen Platelets Age Gender Unit1 Unit2 HospAdmTime ICULOS
feature_infos=[0:334] [0:280] [0:100] [0:41.539999999999999] [0:298] [0:300] [0:298] [0:99] [0:100] [-30:100] [0:52] [-50:10] [0:7.7999999999999998] [0:100] [0:100] [0:9961] [0:252] [0:3833] [0:27.899999999999999] [0:145] [0:29.859999999999999] [0:30] [0:960] [0:27] [0:8.9000000000000004] [0:18.800000000000001] [0:27.5] [0:49.200000000000003] [0:440] [0:70.200000000000003] [0:30] [0:250] [0:387] [0:1760] [0:2322] [14:100] [0:1] [0:1] [0:1] [-5366.8599999999997:23.989999999999998] [1:335]
tree_sizes=6941 6904 6908 6969 6953 6965 6977 6980 6989 7029 7023 7054 7054 7056 7031 7059 7072 7097 7070 7061 7059 7089 7081 7082 7084 7087 7091 7098 7076 7070 7097 7075 7086 7119 7104 7118 7060 7098 7077 7096 7103 7094 7132 7133 7113 7081 7087 7079 7112 7101 7113 7121 7121 7136 7118 7122 7154 7134 7114 7125 7068 7125 7144 7113 7080 7128 7107 7098 7111 7132 7124 7117 7123 7095 7126 7174 7160 7130 7133 7139 7146 7080 7149 7159 7119 7161 7160 7174 7128 7131 7148 7165 7126 7146 7093 7141 7176 7120 7143 7077 7180 7150 7163 7131 7152 7140 7112 7142 7163 7131 7090 7168 7167 7137 7074 7114 7101 7171 7166 7181 7180 7129 7179 7139 7154 7102 7157 7116 7129 7097 7146 7165 7081 7133 7103 7157 7096 7147 7112

Tree=0
num_leaves=64
num_cat=0
split_feature=40 3 11 38 0 27 4 16 32 10 17 38 1 7 17 34 27 30 4 40 4 32 40 4 12 22 16 32 4 16 4 27 1 24 36 12 31 8 5 11 4 3 27 14 22 11 24 29 17 31 17 16 7 31 12 30 31 33 35 35 16 33 16
split_gain=4.47654e+06 999176 644997 575579 340859 315152 234827 146348 139126 119545 79526.8 78316.3 76232.9 76069.1 66387.4 63662.6 63106.4 55927.8 55018.1 52054.7 47199.6 50564.2 45350.1 44702.8 45076.1 38843.4 40577.6 38221.3 37143.6 36830.5 34472.1 34427.1 33598.3 38086.2 32256.2 32208.2 31842 30961.1 30857.4 30801.9 28921.3 27027.7 25895.8 25712 25436.1 25124.3 31955.7 24718.9 24366.8 24082.5 26689.1 23835.5 28245.4 23378.9 23197.8 22822.1 22769.5 22797.4 22560 23831.5 22505.1 22201.1 22056.8
threshold=54.500000000000007 37.805000000000007 0.35500000000000004 1.0000000180025095e-35 8.5000000000000018 0.37500000000000006 94.625000000000014 24.750000000000004 13.205000000000002 19.425000000000004 40.500000000000007 1.0000000180025095e-35 92.250000000000014 26.875000000000004 34.500000000000007 343.50000000000006 0.4250000000000001 10.125000000000002 72.750000000000014 58.500000000000007 1.0000000180025095e-35 23.850000000000005 17.500000000000004 104.08500000000002 7.4050000000000011 1.0000000180025095e-35 24.750000000000004 16.550000000000004 80.125000000000014 94.500000000000014 111.12500000000001 0.82500000000000007 99.750000000000014 1.7750000000000001 1.0000000180025095e-35 7.1850000000000014 75.550000000000011 28.750000000000004 77.750000000000014 0.59500000000000008 113.62500000000001 38.105000000000011 0.52500000000000013 68.800000000000011 98.250000000000014 0.48500000000000004 2.2750000000000004 34.125000000000007 79.250000000000014 29.250000000000004 109.50000000000001 25.250000000000004 21.375000000000004 41.45000000000001 7.3650000000000011 9.2250000000000014 27.750000000000004 498.50000000000006 71.295000000000016 53.335000000000008 1.0000000180025095e-35 156.50000000000003 9.7500000000000018
decision_type=2 2 2 2 2 2 2 2 2 2 2 2 2 2 2 2 2 2 2 2 2 2 2 2 2 2 2 2 2 2 2 2 2 2 2 2 2 2 2 2 2 2 2 2 2 2 2 2 2 2 2 2 2 2 2 2 2 2 2 2 2 2 2
left_child=1 2 4 9 7 15 18 12 13 40 20 41 23 17 32 25 51 29 35 -2 -11 22 55 -1 42 -5 36 53 -14 38 -12 -9 33 -13 43 -6 -27 56 48 -28 -4 -3 60 -24 -30 46 -7 -39 54 50 -18 52 -10 -20 -8 -22 -19 -58 59 -36 -25 62 -32
right_child=19 11 3 5 6 45 8 31 16 10 30 14 28 -15 -16 -17 49 37 27 -21 21 -23 34 24 -26 26 39 -29 44 -31 61 -33 -34 -35 58 -37 -38 47 -40 -41 -42 -43 -44 -45 -46 -47 -48 -49 -50 -51 -52 -53 -54 -55 -56 -57 57 -59 -60 -61 -62 -63 -64
leaf_value=-3.3442318485400757 -2.8479197116955151 -2.9389570466871247 -2.8227585986040298 -3.1634716446305351 -3.1858188161391809 -3.1519486799568655 -3.6858469897939208 -3.1054924867666229 -3.7774201019081435 -2.745287523327554 -2.8370186644667195 -3.7835747113189599 -2.7230521990287633 -3.3545664389086021 -2.7876820636969755 -3.02418561588697 -3.555947929266738 -3.9012565932356407 -3.5204171996863809 -2.5475083648028787 -2.9057285156085806 -2.778358450393644 -3.7866469574112553 -3.5813951727550895 -2.9702636523735055 -3.7811793821917821 -3.6282280196727452 -2.930039191628071 -3.1621708790811907 -3.1435154465162545 -3.5472747230382344 -2.6916646674524864 -3.0178742751776486 -3.2374586629109618 -3.271572271161209 -2.6254240148273151 -2.9280462672500298 -2.9597944812249746 -3.7532954557488623 -3.1242293867133379 -3.0132325811175504 -2.7481591677383364 -3.2743009064378539 -3.3651866832554314 -3.4552464239227625 -2.9632288659933823 -3.918965632596735 -3.8124311016226371 -3.2770218879640134 -3.0297664622131726 -3.074889814999703 -3.3766068689345325 -3.4006422033666448 -3.1052641447771667 -3.3233468469518055 -3.2688487497853118 -3.7573261273098657 -2.9042081205978683 -3.1484586170040036 -3.6731051321875392 -3.8552898100185691 -3.426351125469556 -2.9887833018375494
leaf_weight=1453.1118795834482 580.63922088593245 1182.8330488689244 1468.844755962491 119.95184969156981 235.63821334391832 304.81532946228981 1008.3297134004533 572.76617797091603 609.12600850686431 143.00046714022756 671.37200444936752 165.41840055957437 130.53020283579826 466.91321251913905 403.53542685508728 134.11924852058291 282.36803589388728 2434.8804282955825 738.24004732072353 7912.103841137141 231.99119744822383 152.03776482492685 342.65619501471519 1382.8303063847125 108.70456613600254 2298.2040522620082 357.86333221942186 149.33776769787073 825.31708672642708 115.38095969706774 73.704756889492273 276.65823264047503 337.07166392356157 383.27581208199263 288.31434210762382 159.84221700578928 39.136912543326616 63.272237330675125 2338.6024908348918 158.08749299496412 1528.5646767728031 1748.4935925528407 200.5305827781558 210.85854388773441 406.48096546530724 718.7268990278244 58.450879156589508 59.426426161080599 209.95682457461953 316.54291180893779 167.00581582263112 367.43062751367688 254.02322119101882 147.74192875251174 189.03912834823132 521.74112850800157 1002.8574848175049 28.108306061476469 361.17504531517625 251.55806319788098 337.1725083142519 183.51204013451934 607.47659303247929
leaf_count=49584 10354 24658 25040 3358 6796 8460 45683 15049 29421 2038 11738 8018 1761 16076 6387 3142 11581 127498 29442 63778 4555 2335 16651 57924 2347 111307 15530 3039 23230 3153 2991 3494 7875 11720 9133 1652 768 1330 111129 4230 35593 25544 6363 7322 15335 15541 3092 2933 6682 7517 4199 12912 9121 3859 6302 16500 47783 519 9988 11284 17144 6739 13639
internal_value=-3.18115 -3.34151 -3.40584 -3.22926 -3.52222 -3.50786 -3.61735 -3.33281 -3.66927 -3.0635 -3.17057 -2.91092 -3.39673 -3.72577 -3.10758 -3.66159 -3.44547 -3.74912 -3.25812 -2.56791 -3.27553 -3.30817 -3.34519 -3.47149 -3.56289 -3.69066 -3.71311 -3.37426 -3.20617 -3.66987 -3.00009 -2.96933 -3.25452 -3.40141 -3.44384 -2.95643 -3.76644 -3.83446 -3.68631 -3.47241 -2.91953 -2.82476 -3.59696 -3.62524 -3.25836 -3.06707 -3.27481 -3.3679 -3.57525 -3.23154 -3.37551 -3.57914 -3.66597 -3.45026 -3.6281 -3.15578 -3.85115 -3.73303 -3.33295 -3.45772 -3.63497 -3.12791 -3.04846
internal_weight=40977.7 32485 28264.3 11226.2 17038.2 4189.36 11344.1 5694.1 9913.26 7036.81 4039.4 4220.63 4844.68 7916.77 1289.3 3107.36 1996.5 7449.85 1430.8 8492.74 2503.33 2360.33 2208.29 3482.35 2029.24 2973.24 2853.29 1035.32 1362.33 3861.31 1536.07 849.424 885.766 548.694 1454.56 395.48 2337.34 3588.54 3745.93 515.951 2997.41 2931.33 1920.53 553.515 1231.8 1081.99 363.266 122.699 1407.33 765.917 449.374 1230.58 863.149 885.982 1197.37 753.732 3465.85 1030.97 901.047 539.872 1720 864.693 681.181
internal_count=1180166 1106034 1021832 340974 680858 165428 488627 192231 443839 175546 114913 84202 173688 369088 34000 138335 74751 353012 44788 74132 79806 77768 75433 133362 83778 135193 131835 36340 40326 172949 35107 18543 27613 19738 54378 8448 112075 180063 169796 19760 60633 50202 81431 23973 38565 27093 11552 4263 58667 23297 15780 51454 38542 33301 51985 21055 175800 48302 30405 20417 75068 23369 16630
is_linear=0
shrinkage=1


Tree=1
num_leaves=64
num_cat=0
split_feature=23 1 39 39 0 0 29 0 39 4 1 3 10 0 39 39 39 0 3 20 10 38 17 26 0 20 10 16 0 20 23 31 34 20 18 26 19 39 19 12 37 4 20 34 1 10 8 7 34 7 31 22 0 39 18 34 34 38 16 26 34 24 34
split_gain=161072 63025.8 60052.3 82314.2 45497.7 32555.4 31795.3 28397.3 27120.3 23287.7 20708.3 19309.7 19069.4 19028.4 18904.1 17517.9 20759.4 23104.9 15406.5 15838.8 14705.1 14285.9 13791.4 19468.3 20695.4 15406.7 13788.7 13489.8 13026.8 14236 12585.2 12831.7 12506.4 12297.8 12004 14518.1 14137.6 11678 11634.3 11032.2 13439.3 17212 14124.6 12229.9 10912.4 10722.8 10552 10468.5 10318.7 10055.5 10029.7 10795.8 10828.3 9906.27 9835.18 9765.09 11325.1 10251.2 9666.43 9660.22 20418.9 10091.9 9343.27
threshold=0.59500000000000008 91.750000000000014 -2.1749999999999994 -36.474999999999987 13.500000000000002 48.500000000000007 30.125000000000004 40.500000000000007 -1.1449999999999998 104.08500000000002 99.250000000000014 37.680000000000007 5.5000000000000009 19.500000000000004 -468.03499999999997 -2.0949999999999993 -45.234999999999992 37.500000000000007 37.895000000000003 1.7250000000000003 1.0000000180025095e-35 1.0000000180025095e-35 32.500000000000007 3.4050000000000007 42.500000000000007 1.135 39.500000000000007 19.750000000000004 46.500000000000007 1.925 1.7950000000000002 24.050000000000004 135.50000000000003 1.2350000000000001 1.155 3.7050000000000005 103.25000000000001 -1.9049999999999996 114.50000000000001 7.4450000000000012 1.0000000180025095e-35 107.12500000000001 3.4050000000000007 524.50000000000011 83.750000000000014 18.650000000000002 20.750000000000004 22.875000000000004 685.50000000000011 15.875000000000002 32.45000000000001 316.50000000000006 41.500000000000007 -285.07999999999993 10.450000000000001 328.50000000000006 167.50000000000003 1.0000000180025095e-35 12.750000000000002 3.5050000000000003 249.50000000000003 2.5750000000000006 233.50000000000003
decision_type=2 2 2 2 2 2 2 2 2 2 2 2 2 2 2 2 2 2 2 2 2 2 2 2 2 2 2 2 2 2 2 2 2 2 2 2 2 2 2 2 2 2 2 2 2 2 2 2 2 2 2 2 2 2 2 2 2 2 2 2 2 2 2
left_child=1 2 3 6 12 11 21 18 10 33 22 26 46 20 -11 16 -16 47 19 38 -10 32 23 -2 25 34 39 48 29 -8 62 -32 -1 -3 36 -36 -25 -21 59 40 43 49 -43 -5 -44 -17 -4 -18 -23 -42 51 52 54 -37 -47 56 57 -14 -20 60 -6 -61 -27
right_child=8 9 4 5 7 -7 28 -9 13 14 -12 -13 55 -15 15 45 17 -19 58 37 -22 27 -24 24 -26 30 -28 -29 -30 -31 31 -33 -34 -35 35 53 -38 -39 -40 -41 41 42 44 -45 -46 50 -48 -49 -50 -51 -52 -53 -54 -55 -56 -57 -58 -59 -60 61 -62 -63 -64
leaf_value=0.41708931929632903 0.41713508365887325 0.35406223294307093 0.40353788442524974 0.075879238095777721 0.13096975174404885 0.31352780507447825 0.12546909079075008 0.33231831967749292 0.50893023330800335 0.48437270647287184 0.38632239991692696 0.27995410294300027 0.38613158972378459 0.37756509436509733 0.32928377317046553 0.39122265294522701 0.14129720465255907 0.3476777328212225 0.086854522036452858 0.70759775407101499 0.40353835963749229 0.17485746650006631 0.35269841793884593 0.42073812384226084 0.34661651849189934 0.1597649521086838 0.94578643585791322 0.37311906584308885 0.32174049650741621 0.33626395183598745 0.16680062841228033 0.46758993730863935 0.30551073808983936 0.44808549732990544 0.32478353198637361 0.37064065195091389 0.17906239274785823 0.28318976077505981 0.45915457767035012 0.30933324187319833 0.12132057848052735 0.071521507518494301 0.14168514804695864 0.52108222204279342 0.54331778092627458 0.16678827269476126 0.5994222788786201 0.2717307822455618 1.1655963371391265 0.32591127241455176 0.3957781227056783 0.76256328846281396 0.3478248680575563 0.08353984741039755 0.93608919743973085 0.46092212242879299 0.17840055137779209 -0.030361670369461649 0.42001429373850691 0.097618903345154898 0.47225991160264369 0.33233730607775569 0.38109704820381107
leaf_weight=2206.9905802998692 1111.1961589399725 3979.113763904199 3368.0227885488421 3998.1919107045978 474.19233874604106 1149.3717978894711 1452.7126294802874 3107.1502665895969 1963.9299896731973 541.36548779346049 8818.2215296849608 824.00054256059229 618.45980069972575 16430.626362014562 3101.2375381942838 2437.6077972371131 1944.5760182868689 995.13879114203155 95.841618586331606 65.4884396456182 3143.3917615171522 873.46445461176336 10722.280699407682 390.18923635780811 2686.3683713842183 538.99256822653115 17.460672775283456 573.4091703556478 678.77587598003447 359.67089602537453 164.51593426801264 592.73475166782737 1561.9190691616386 1861.2721341233701 343.80681413598359 117.14834639057517 497.78869563341141 519.76653690822423 112.52050350233912 277.81661777384579 310.62435190565884 1405.71168686077 141.32739255577326 55.349519472569227 107.30355588532984 907.66536022163928 271.44397921860218 776.81993376649916 8.600692203268407 723.27987502142787 672.80954492278397 36.152551421895623 554.63209805451334 1298.9001201465726 14.263227500021456 268.33852537535131 709.5325432009995 58.028540385887027 444.61258735880256 1971.5059920717031 236.34424780495465 179.19468051753938 252.98973073810339
leaf_count=30359 9637 43008 53589 137468 15405 6920 45426 22883 9562 3477 52086 12215 8893 78334 42957 25673 52091 9737 1507 385 28591 24764 60802 7138 14180 13218 80 7754 3895 5883 4210 6658 20443 12035 6283 1842 14900 11637 1485 5533 8318 51339 4324 613 1571 19575 1484 14682 18 14924 5952 266 2655 40930 107 3083 16787 2265 2233 65038 3648 4033 3378
internal_value=0.330062 0.290383 0.263242 0.226034 0.313006 0.164417 0.297961 0.263871 0.368097 0.334872 0.348311 0.142579 0.379831 0.393376 0.310848 0.302595 0.271913 0.223965 0.211923 0.189159 0.444157 0.34004 0.330383 0.300414 0.281513 0.239771 0.126455 0.259819 0.209613 0.167464 0.314984 0.402548 0.370942 0.384098 0.195661 0.150138 0.285612 0.331806 0.160983 0.124283 0.116613 0.168626 0.108509 0.0820853 0.316503 0.347774 0.418308 0.178615 0.185827 0.264621 0.299158 0.255951 0.243039 0.107536 0.179692 0.294984 0.262548 0.350413 0.361203 0.149101 0.244997 0.117321 0.230858
internal_weight=96122.2 47049.1 29226.4 16726 12500.4 9010.44 7715.54 7206.62 49073.1 17822.7 27535.1 7861.07 5293.83 21537.9 11982.3 11440.9 6817.77 3716.53 4099.47 3559.01 5107.32 5224.38 18716.9 7994.63 6883.43 4197.07 7037.07 1455.47 2491.16 1812.38 1549.23 757.251 3768.91 5840.39 2647.83 1759.86 887.978 585.255 2973.76 7019.6 6741.79 2688.25 1654.34 4053.54 248.631 4623.13 3639.47 2721.4 882.065 1033.9 2185.52 1512.71 1476.56 1416.05 921.929 1654.36 1386.02 676.488 540.454 2861.24 710.537 2150.7 791.982
internal_count=1180166 828417 596202 381847 214355 243305 138542 128254 351749 232215 235262 236385 86101 116487 177172 173695 119467 76510 105371 101631 38153 83338 183176 122374 112737 98557 224170 32536 55204 51309 27464 10868 50802 55043 71093 49055 22038 12022 89609 224090 218557 80476 57234 138081 5895 54228 55073 66773 24782 23242 28555 22603 22337 42772 19682 31028 27945 11158 3740 88124 19053 69071 16596
is_linear=0
shrinkage=0.03


Tree=2
num_leaves=64
num_cat=0
split_feature=23 7 20 39 39 40 12 6 3 31 40 35 29 3 32 11 38 40 17 20 39 28 12 39 14 27 6 32 8 3 35 10 32 39 40 32 7 34 39 40 40 20 32 35 28 39 5 35 31 11 22 20 40 25 34 32 10 3 10 39 22 28 27
split_gain=66859.4 36464.9 31882.7 25445 42792.6 21782 20896.4 18864.7 12615.2 11995.5 20469.1 10991.3 10253.1 9932.98 12131 9874.1 12134.8 11754.5 12286.5 16836 14615.3 9333.48 9588.53 9132.15 10140 8983.42 9731.31 8703.88 8368.82 8223.09 7926.07 7914.03 7741.47 7602.15 8734.22 8096.02 7372.89 11319.5 7371.31 7206.44 12507 9557.98 7200.42 7174.07 7085.47 7082.97 7021.89 6897.77 6754.27 6987.99 7960.26 6746.62 6598.67 6517.91 6509.81 10979.3 8586.92 6479.87 6449.03 6337.43 6287.74 6224.76 6134.65
threshold=0.59500000000000008 22.125000000000004 1.675 -1.4349999999999998 -41.954999999999991 13.500000000000002 7.4450000000000012 50.625000000000007 37.570000000000007 29.950000000000003 50.500000000000007 46.455000000000005 34.025000000000006 37.180000000000007 11.15 0.59500000000000008 1.0000000180025095e-35 41.500000000000007 40.500000000000007 0.42500000000000004 -18.134999999999994 0.90500000000000014 7.455000000000001 -152.31499999999997 96.075000000000003 1.3500000000000003 43.625000000000007 4.3500000000000005 19.750000000000004 36.735000000000007 86.355000000000004 18.450000000000003 15.950000000000001 -0.97499999999999987 35.500000000000007 16.550000000000004 17.875000000000004 78.500000000000014 -580.16999999999996 49.500000000000007 17.500000000000004 1.385 13.545000000000002 77.995000000000019 0.055000000000000007 -4.2449999999999992 65.085000000000022 48.005000000000003 35.350000000000001 0.39500000000000007 140.25000000000003 0.90500000000000014 46.500000000000007 2.0250000000000004 151.50000000000003 10.540000000000001 21.950000000000003 38.180000000000007 30.800000000000004 -21.694999999999997 152.25000000000003 1.3550000000000002 1.2500000000000002
decision_type=2 2 2 2 2 2 2 2 2 2 2 2 2 2 2 2 2 2 2 2 2 2 2 2 2 2 2 2 2 2 2 2 2 2 2 2 2 2 2 2 2 2 2 2 2 2 2 2 2 2 2 2 2 2 2 2 2 2 2 2 2 2 2
left_child=1 2 3 4 7 31 8 12 25 10 32 -4 29 14 27 16 -2 18 19 20 23 22 46 24 -18 26 36 -13 30 -1 52 -5 -7 34 -11 62 -6 -38 -9 40 41 -40 -32 -34 57 -30 -21 -29 49 50 -33 -24 58 -51 -3 56 -56 -42 -28 -8 -27 -23 -35
right_child=15 54 11 5 6 9 59 38 -10 33 -12 13 -14 -15 -16 -17 17 -19 -20 21 -22 61 51 -25 -26 60 28 47 45 -31 42 48 43 35 -36 -37 37 -39 39 -41 44 -43 -44 -45 -46 -47 -48 -49 -50 53 -52 -53 -54 -55 55 -57 -58 -59 -60 -61 -62 -63 -64
leaf_value=0.3100824585788341 0.26084412585128464 0.27760507547253471 0.16653438317514146 0.27480888408836446 0.11480074610665404 0.098050263276294472 0.028025779343085509 0.30734725389799644 0.19178423740326936 -0.029056323443668815 0.24396927131733182 0.29323175863809148 0.077988231182791981 0.32759315757624369 0.30139603928544639 0.27955265009123831 0.49652147764928523 0.25312680339896065 0.25236172641667487 0.19537163821116091 0.42844525694546493 0.52735497222032168 0.067299595168823195 0.067319374057165926 -0.030400063746449053 0.26537591322193238 0.05200010148119158 0.38472782543431849 0.12076483331676977 0.22035664175296765 0.13485349452769174 -0.0066387611989587019 0.13210389655679439 0.22055132073843473 0.83321172701149648 0.33666137819849212 0.36511081892297831 0.11631418522552689 0.17934574712769549 0.23520629897363932 0.049519550652051346 0.41307213368804457 0.45402192251236134 0.34361155925111214 0.27774491451772021 0.35414808608405923 0.070539953979106701 0.16827590342294327 0.3121612494446071 0.015325708971054494 0.21141758938427813 0.32361630234001354 0.16461999726168974 0.27462268995466832 0.13125272014579026 0.262835295350211 0.234862858842765 0.24975786707029402 0.35660368352092831 0.30764814538243179 -0.030976762594169243 0.18456880868238582 0.061635880083112653
leaf_weight=2411.0066190045327 38224.883874138817 6707.5710722077638 1118.6154434941709 5553.1920845173299 1152.2323493454605 2970.274132868275 81.435896262526512 384.56057009473443 1856.418797230348 14.571092976257203 1723.5481927562505 844.27383474446833 252.46090210787952 1872.6440238207579 2221.2134980242699 15441.411491781473 116.79907085001469 7534.9018922708929 2299.7747165244073 511.24091316759586 361.89844824559987 83.942226883023977 131.98113549128175 281.55519068427384 45.436381289735436 467.30956450849771 5497.4208577647805 140.50139747001231 363.50767586752772 1509.1649249624461 265.55502448044717 331.4133415967226 368.61851687915623 2233.0406466536224 36.904523579403758 509.22766310162842 329.05911953561008 331.00828377902508 2396.9355970993638 1237.2328294496983 1396.7245511226356 168.33180331811309 83.318131098523736 238.59999463148415 163.18782827816904 172.92473063617945 1959.9957870300859 2270.3416078519076 370.11573225259781 103.66544274426997 275.18704901263118 312.28257759846747 547.08365390263498 554.05623251572251 1253.1371195577085 5536.2930195126683 1707.8716283626854 161.49797333590686 62.309555286541581 716.76395422406495 74.486973879858851 112.68042954802513 243.38573070988059
leaf_count=23259 164698 55357 14111 53074 25621 74079 1592 2781 23923 486 5543 7884 5112 11148 16062 60159 735 26809 18343 9367 3131 268 3176 7569 1517 6796 174015 1076 6538 16476 7757 9012 6094 27069 151 2571 3672 7349 42849 4715 37534 1404 647 1245 2683 1734 50820 33704 3624 2167 4502 3331 6274 4347 21691 40634 16211 931 644 6005 2097 1826 4167
internal_value=0.237791 0.215099 0.201792 0.189937 0.169225 0.219384 0.130928 0.214798 0.12034 0.186339 0.159038 0.254414 0.26367 0.267766 0.247252 0.258414 0.252129 0.227889 0.197267 0.164871 0.287077 0.133151 0.119574 0.171091 0.349667 0.10613 0.098812 0.210224 0.0827332 0.275605 0.0732494 0.257686 0.118064 0.233923 0.593229 0.227531 0.160766 0.24071 0.180244 0.171342 0.152858 0.194838 0.212157 0.215642 0.0902237 0.196517 0.0964333 0.181045 0.199376 0.166139 0.0924686 0.247792 0.0652804 0.233839 0.255407 0.237854 0.191073 0.0704196 0.0554774 0.279191 0.224651 0.332839 0.204964
internal_weight=128699 61280.2 46075.3 37607.7 22081.9 15525.8 12000.8 10081.1 11202.6 8338.17 5301.04 8467.59 4172.63 7348.97 5476.33 67418.8 51977.4 13752.5 6217.59 3917.81 805.689 3112.12 2915.5 443.791 162.235 9346.22 8804.42 3255.12 6992.12 3920.17 6455.69 7187.63 3577.49 3037.13 51.4756 2985.65 1812.3 660.067 5908.47 5523.91 4286.68 2565.27 348.873 607.219 1721.41 536.432 2471.24 2410.84 1634.44 1264.32 606.6 444.264 6106.81 657.722 15204.9 8497.3 2961.01 1558.22 5559.73 798.2 541.797 196.623 2476.43
internal_count=1180166 828417 694524 610539 412408 198131 274664 137744 267067 121405 86961 83985 44847 69874 58726 351749 291590 126892 100083 81740 12952 68788 66694 9821 2252 243144 234251 42664 197609 39735 189337 76726 81418 34444 637 33807 36642 11021 92897 90116 85401 44253 8404 7339 41148 8272 60187 34780 23652 20028 13514 6507 180933 6514 133893 78536 37902 38465 174659 7597 8893 2094 31236
is_linear=0
shrinkage=0.03


Tree=3
num_leaves=64
num_cat=0
split_feature=23 30 32 15 39 39 39 0 3 4 37 33 0 32 4 3 39 37 0 39 18 22 31 26 11 28 3 24 37 22 0 15 0 31 27 34 35 19 39 9 34 39 20 39 32 0 22 34 16 15 20 31 16 22 19 16 27 22 31 2 19 39 28
split_gain=38866.1 17901.4 19173.1 14041.2 12565.8 20557.7 31825.2 12071.6 9931.51 9598.75 7977.93 10328.1 7718.31 8119.28 7631.05 7394.1 8483.75 9093.22 9475.74 7365.78 7331.15 7236.52 7106.57 7031.96 8318.34 7827.09 6949.07 6716.3 6706.93 6531.83 6416.42 9291.39 7719.39 9327.8 7436.27 7114.71 7814.45 7024.25 6341.7 8075.5 6388.19 7103.34 6302.94 6086.59 5877.2 5842.82 5733.98 7822.92 5732.38 5615.02 5555.62 5548.52 6203.95 5510.74 6360.42 5381.36 5367.96 6253.26 6269.92 5359.84 5250.28 5199.33 8616.33
threshold=0.59500000000000008 10.625000000000002 9.8300000000000018 20.500000000000004 -250.68999999999997 -2.7549999999999994 -19.274999999999995 40.500000000000007 37.285000000000004 120.08500000000002 1.0000000180025095e-35 129.50000000000003 62.500000000000007 5.0500000000000007 99.625000000000014 37.605000000000011 -0.074999999999999997 1.0000000180025095e-35 47.500000000000007 -0.054999999999999993 10.850000000000003 227.25000000000003 29.825000000000006 3.1050000000000004 0.42500000000000004 0.99500000000000011 37.960000000000008 1.8750000000000002 1.0000000180025095e-35 228.25000000000003 46.500000000000007 86.500000000000014 14.500000000000002 24.925000000000001 0.52500000000000013 211.25000000000003 86.00500000000001 113.25000000000001 -146.30499999999998 -5.4499999999999993 101.50000000000001 -157.30999999999997 1.6950000000000001 -262.11499999999995 24.950000000000003 12.500000000000002 222.25000000000003 115.25000000000001 80.250000000000014 38.500000000000007 0.7350000000000001 36.32500000000001 4.7500000000000009 106.25000000000001 101.50000000000001 18.750000000000004 0.62500000000000011 73.250000000000014 62.850000000000001 92.250000000000014 114.50000000000001 -1.7949999999999997 0.27500000000000008
decision_type=2 2 2 2 2 2 2 2 2 2 2 2 2 2 2 2 2 2 2 2 2 2 2 2 2 2 2 2 2 2 2 2 2 2 2 2 2 2 2 2 2 2 2 2 2 2 2 2 2 2 2 2 2 2 2 2 2 2 2 2 2 2 2
left_child=1 4 3 12 43 6 9 10 22 28 20 14 13 19 -12 16 17 18 23 48 21 26 55 -2 25 38 -8 -13 -6 -23 31 32 37 34 44 36 46 -4 40 -40 -25 -42 -7 -1 -34 -19 47 -35 -3 -37 -26 52 -52 54 -41 -5 -16 -58 -59 -56 -15 -44 -63
right_child=15 2 30 8 5 42 7 -9 -10 -11 11 27 -14 60 56 -17 -18 45 -20 -21 -22 29 -24 24 50 -27 -28 -29 -30 -31 -32 -33 33 35 -36 49 -38 -39 39 53 41 -43 61 -45 -46 -47 -48 -49 -50 -51 51 -53 -54 -55 59 -57 57 58 -60 -61 -62 62 -64
leaf_value=0.21660357419694259 0.23981175580816738 0.043644332940310393 0.17214982849443328 0.015787242998985426 0.18261437162871105 0.1911808219823864 0.041885583225855193 0.18816604615273699 0.23724173935812956 0.15416044160032477 0.18513976793278059 0.3728638823384538 0.18660240167515818 0.046090475860238303 0.061173834464049816 0.21496437303203211 0.21090276320081722 0.25972134195753166 0.19508237510405679 0.25042763090179188 0.48235213679607902 0.74994615042369639 0.18445881121686011 0.25804026290874899 0.1230192436366932 0.26661533136765925 0.17185259572968656 -0.030851202108737551 0.2330708395492862 0.18397930850191091 0.20829280680136886 0.22929845466076987 0.041857410908134371 0.1946336502772763 0.17878046788446927 0.21877497160330162 0.30687337616070093 0.35864570574365301 0.23061363651194866 0.20233563954214956 0.068245681454733725 0.30698347589360303 0.32501772730649081 0.34817177625576795 0.24740487859410612 0.19998890031251737 0.31693560111650659 -0.0054893337601032493 0.3183128001868516 -0.031695946454961418 0.74138530315710682 0.23926068299877762 0.1649610405194204 0.051144887028382303 0.33418511383459504 0.141712179519902 0.40770787645403117 0.073290111469941702 0.42263892977996054 -0.0016385782792500082 0.27862440291174151 0.23377538211341528 0.051210855406909811
leaf_weight=5290.4521226175129 870.04900658689439 500.63651889376342 3491.5025649443269 620.10585944354534 6160.9993754774332 16734.345976660028 3372.4727513957769 1625.5586255714297 1095.0774075109512 6006.7498239781708 993.18078766390681 229.23289360105991 592.47491747885942 3649.6154525298625 1765.0421297904104 28070.277157302946 21216.833686923608 1844.2398181781173 12593.126542717218 386.99874746240675 37.274534141644835 19.990234475582838 1046.7069599870592 472.38899614475667 1422.2430085092783 316.58574651181698 415.1399174593389 44.034542137756944 3895.5035450775176 158.44514495506883 3349.7965818364173 1509.8204221595079 1826.3979823272675 243.8882067669183 573.37899373658001 1485.6910649463534 148.70996417291462 191.80057612806559 340.90599847026169 557.20252815075219 570.08211332932115 138.9432002864778 493.52757008746266 338.88434510678053 133.48893590085208 7641.6428002733737 78.744022101163864 622.94429824873805 78.295981952920556 84.917422041296959 15.982923807576297 1467.9027239847928 3073.3702334947884 2208.6214691027999 48.225198270753026 601.42571329884231 84.634396089240909 325.95287773758173 53.020418215543032 326.26409768871963 88.583037052303553 3164.4947572685778 251.82060145027936
leaf_count=31845 5475 12987 45862 15854 61978 145679 85033 11516 5623 72175 11149 901 1399 94183 40694 73773 79706 6377 24326 3596 281 62 10210 3553 19619 2172 3137 1115 23984 2476 8558 9280 43435 2172 8291 16154 919 1359 1918 5848 9067 1033 2324 1427 806 29197 448 14083 180 1631 80 9282 29603 43361 319 9245 297 6164 75 7040 572 16365 2893
internal_value=0.188328 0.17248 0.150072 0.115084 0.182231 0.177024 0.158815 0.114047 0.163026 0.184234 0.0979561 0.131078 0.0846161 0.0717342 0.115987 0.202395 0.195991 0.186655 0.176946 0.149235 0.0690136 0.0650082 0.127107 0.157623 0.151077 0.12238 0.0561722 0.307934 0.202181 0.251211 0.172113 0.160431 0.148699 0.125103 0.0838314 0.164291 0.10541 0.181956 0.112531 0.0921014 0.172602 0.115396 0.199231 0.224584 0.0559764 0.211628 0.0734353 0.0509758 0.0812759 0.205221 0.174948 0.191124 0.168182 0.0769962 0.138157 0.0778521 0.0850999 0.175863 0.12315 0.0423822 0.0516738 0.23363 0.220337
internal_weight=157057 73861.8 22401 8659.92 51460.8 45831.4 25187.2 9123.98 3363.32 16063.3 7498.42 3495.1 5296.6 4704.13 3221.83 83194.9 55124.6 33907.8 24421.9 965.931 4003.32 3966.05 2268.24 11828.8 10958.7 4979.22 3787.61 273.267 10056.5 178.435 13741.1 10391.3 8881.46 5198.16 2533.27 2664.89 1094.29 3683.3 4662.63 3481.22 1181.41 709.025 20644.2 5629.34 1959.89 9485.88 945.577 866.833 578.933 1570.61 5979.5 4557.26 3089.35 3140.31 931.692 1221.53 2228.65 463.608 378.973 374.489 3738.2 3909.84 3416.32
internal_count=1180166 828417 306847 153849 521570 488298 321037 162900 40932 158137 151384 60395 112917 111518 58379 351749 277976 198270 162696 16763 90989 90708 35309 138370 132895 74311 88170 2016 85962 2538 152998 144440 135160 87939 52532 35407 17622 47221 72139 58486 13653 10100 167261 33272 44241 35574 16703 16255 13167 17785 58584 38965 29683 56568 13207 25099 47230 6536 6239 7359 94755 21582 19258
is_linear=0
shrinkage=0.03


Tree=4
num_leaves=64
num_cat=0
split_feature=11 1 5 39 39 34 18 0 20 39 4 35 32 20 39 32 3 39 0 39 40 37 27 39 10 29 12 34 39 35 33 35 39 4 10 40 10 32 1 40 14 29 11 19 10 39 34 32 39 20 40 4 7 1 7 4 18 11 29 39 27 26 29
split_gain=25675.1 19669.9 12642.8 15218.5 11714.5 7575.32 7406.09 11322 6645.92 8744.65 6737.09 6515.17 6084.21 6893.47 5901.85 6935.78 5466.37 5421.12 5105.9 4920.13 7864.42 10083.7 7902.63 11198.4 7581.21 5656.6 5624.04 5411.87 5007.75 4733.02 4714.8 6575.43 4684.37 4665.4 4617.3 4822.07 4606.78 4569.65 4551.19 4537.19 4362.06 4302.74 4264.46 4086.52 3961.06 3936.11 3896.31 4685.56 3877.04 3779.85 4155.6 4190.45 3919.69 3750.47 3747.64 3733.15 3709.86 3684.88 4068.03 3668.13 3665.34 5471.2 4052.92
threshold=0.29500000000000004 89.750000000000014 70.085000000000022 -1.1449999999999998 -53.964999999999996 152.50000000000003 1.0000000180025095e-35 17.500000000000004 2.4450000000000007 -2.7549999999999994 107.12500000000001 77.00500000000001 7.8500000000000005 5.0050000000000008 -4.3149999999999986 14.450000000000001 37.705000000000005 -124.37499999999999 45.500000000000007 -3.4749999999999996 44.500000000000007 1.0000000180025095e-35 0.15000000000000005 -22.344999999999995 12.225000000000001 30.225000000000005 7.3750000000000009 233.50000000000003 -48.254999999999988 74.995000000000019 165.50000000000003 55.995000000000012 -580.16999999999996 119.62500000000001 23.025000000000002 58.500000000000007 24.325000000000006 17.950000000000003 80.750000000000014 15.500000000000002 94.450000000000017 42.95000000000001 0.31500000000000006 115.50000000000001 26.450000000000003 -49.074999999999996 211.25000000000003 12.120000000000003 -27.334999999999997 1.6950000000000001 47.500000000000007 95.585000000000022 5.7500000000000009 113.75000000000001 20.375000000000004 1.0000000180025095e-35 9.4250000000000025 0.055000000000000007 26.825000000000006 -79.324999999999974 1.1500000000000001 4.995000000000001 41.250000000000007
decision_type=2 2 2 2 2 2 2 2 2 2 2 2 2 2 2 2 2 2 2 2 2 2 2 2 2 2 2 2 2 2 2 2 2 2 2 2 2 2 2 2 2 2 2 2 2 2 2 2 2 2 2 2 2 2 2 2 2 2 2 2 2 2 2
left_child=1 2 36 4 57 32 7 17 10 48 -6 14 13 55 -9 43 19 -2 60 20 21 22 23 24 27 28 37 -8 42 53 -24 -32 -3 -34 -5 -36 54 -25 -33 40 -21 -14 -26 -16 -28 -44 -13 -48 -10 50 51 -41 -53 -19 -1 -7 -54 58 -4 -29 -12 -62 -63
right_child=6 5 3 34 8 12 16 11 9 -11 18 46 41 -15 15 -17 -18 29 -20 39 -22 -23 30 26 25 -27 44 59 -30 -31 31 38 33 -35 35 -37 -38 -39 -40 49 -42 -43 45 -45 -46 -47 47 -49 -50 -51 -52 52 56 -55 -56 -57 -58 -59 -60 -61 61 62 -64
leaf_value=0.14934854931707839 0.20251106612173084 0.25067566865350471 0.14786783987460139 0.15247917205081546 0.12133091863672781 0.21149035589200285 -0.0063305464498307666 0.01607719053566304 0.19908588677841799 0.2775642808029028 0.024842264134666125 0.12530427456066387 0.14958240517187626 0.22148922519657294 0.022148435978260932 0.20158176167166031 0.17859229600384241 0.1242269975156617 0.11517209347582508 0.17034149171557589 0.16808825866838617 0.173087554864641 0.16591521041234214 0.047789265033059136 0.51138342003365345 0.029984275642847596 0.21857775359229578 0.025727731281797693 -0.00061991314736494266 0.18000783488478928 -0.017494560348729697 0.014816170847969616 0.18568543932271736 0.15045135127235681 0.082818654026249577 0.18482174859621509 0.10580586211916415 0.21737768956429568 0.17473031659180666 0.18772889639886389 0.21959341129838519 0.23335689218335523 0.13245671126414887 0.25006985895246109 0.0061320305391107787 0.31997819976985697 -0.031539335201617648 0.32592918576675783 0.060166059215558197 0.1853720080669356 0.17036820268407715 0.28542896868951195 0.13288934954251691 0.195320676953085 0.1926501806648378 0.071327445025507544 -0.021112419333773093 0.2115567214033573 0.091593046733578848 0.29867476777509067 0.079089867982419182 0.22097847273683074 0.82773341760492036
leaf_weight=8465.8720022533089 2114.2011740710586 707.18397570960224 2391.1631025839597 7885.8283698614687 1257.2830974962562 185.95662050694227 1304.6980300638825 1077.7865718770772 232.19625073298812 289.13411592505872 4400.7602166570723 733.07642266154289 11387.587001878768 378.08786536566913 569.14469206146896 473.30430705286562 30993.185574611649 5177.8498121146113 789.37916954793036 3393.790927361697 20320.05396556668 5447.1822101697326 3867.9615990146995 530.63976015150547 29.200931511819363 658.36425269767642 997.037133987993 84.179024970158935 208.1327844671905 2959.3013376202434 324.15409754216671 205.89486557245255 8344.2518902607262 5753.3747241627425 1910.0062498878688 534.3102176040411 1733.5346999783069 195.18488385900855 723.4358482696116 1558.0587987396866 3149.084753986448 582.58920786716044 1128.4550215881318 79.900867689400911 85.83974501490593 110.37188533693552 39.466409180313349 195.37536569498479 812.41003484651446 7116.7425357028842 13533.077939163893 148.172163952142 6441.0210193414241 770.34581433236599 2304.7862382382154 2054.9431096538901 143.66702813468874 439.98893568851054 2253.7014700472355 93.053321389481425 368.14386318251491 31.432416507974267 14.279771151021121
leaf_count=89510 9804 1487 23838 80606 20041 496 33445 18299 1878 1402 123103 7781 85452 1942 9282 3194 64895 48916 5975 15594 38891 25549 20618 8666 143 11042 9671 1368 3790 17828 4578 2541 47772 51829 35101 317 20246 1126 4149 5755 6448 3941 10890 156 1683 230 706 697 13722 16860 20136 368 53528 2412 15835 28003 2176 2539 34123 599 6902 258 34
internal_value=0.156801 0.141755 0.126914 0.113984 0.0927264 0.159984 0.165225 0.144867 0.0705165 0.131783 0.0585896 0.094831 0.144609 0.103111 0.0662447 0.114363 0.168034 0.159239 0.0444941 0.163474 0.155686 0.139919 0.122772 0.0975049 0.0669926 0.103172 0.158443 0.014847 0.135771 0.148947 0.149514 0.0988118 0.175125 0.171318 0.141299 0.105182 0.151317 0.0936304 0.139355 0.17144 0.194076 0.153679 0.158141 0.0505483 0.201758 0.149408 0.159674 0.265976 0.0912062 0.166316 0.160094 0.143306 0.132999 0.133466 0.158632 0.0830477 0.129527 0.1285 0.120589 0.169906 0.0328846 0.118137 0.424181
internal_weight=182489 65508.2 36114.2 23610 13279.9 29394 116980 14189.8 8195.02 1333.74 6861.28 3168.05 14589.2 2618.99 2200.14 1122.35 102791 11021.7 5604 71797.5 36313.8 15993.8 10546.6 5425.16 3616.46 2134.52 1808.7 1481.93 1476.16 8907.5 5121.45 1253.48 14804.8 14097.6 10330.1 2444.32 12504.2 725.825 929.331 35483.6 6542.88 11970.2 1268.03 649.046 1082.88 1238.83 967.918 234.842 1044.61 28940.7 21824 8290.92 6732.86 5948.2 10770.7 2240.9 6584.69 5084.85 4644.86 177.232 4814.62 413.856 45.7122
internal_count=1180166 696352 475430 349839 233815 220922 483814 119075 173315 17002 156313 40115 119834 30441 30931 12632 364739 78960 136272 299844 178979 140088 114539 82653 61507 26095 21146 35412 15053 69156 31886 11268 101088 99601 116024 35418 125591 9792 6690 120865 22042 89393 11263 9438 11354 11120 9184 1403 15600 98823 81963 61827 56072 51328 105345 28499 55704 60500 57961 1967 130297 7194 292
is_linear=0
shrinkage=0.03


Tree=5
num_leaves=64
num_cat=0
split_feature=23 1 40 40 16 20 39 39 34 8 4 26 35 22 10 4 13 35 39 15 25 39 38 27 30 13 22 19 19 2 20 1 36 35 39 34 34 29 31 25 35 39 35 25 35 31 39 35 39 25 31 29 22 32 31 20 34 16 30 20 1 39 40
split_gain=22640.3 13728.1 13784.4 22701 11315.2 8930.76 8964.11 11454.5 7057.77 7030.2 7819.1 6906.83 6614.01 7652.6 6367.76 5726.68 4863.88 4608.51 4371.95 4797.47 4796.7 4245.33 4585.82 5135.52 4893.52 4833.93 4389.57 4242.85 4178.53 4145.43 4098.95 4175.87 3947.55 3902.52 3852.6 3443.73 3664.48 4508.34 3431 3823.85 3430.13 3397.99 3365.66 4102.69 5412.79 3966.5 3677.87 5225.2 5653.67 4866.59 3800.61 3924.38 3876.54 3324.71 3850.96 3773.19 3563.92 3263.02 3223.13 3431.11 3187.87 3596.49 4794.6
threshold=0.59500000000000008 106.75000000000001 49.500000000000007 15.500000000000002 16.750000000000004 1.2350000000000001 -0.53499999999999992 -25.594999999999995 153.25000000000003 23.750000000000004 1.0000000180025095e-35 3.6050000000000004 86.355000000000004 140.25000000000003 17.800000000000001 103.62500000000001 38.95000000000001 94.500000000000014 -802.66999999999996 35.500000000000007 0.55000000000000016 -406.14999999999992 1.0000000180025095e-35 0.67500000000000016 7.6250000000000009 44.95000000000001 166.25000000000003 109.75000000000001 114.50000000000001 96.250000000000014 2.0950000000000002 77.750000000000014 1.0000000180025095e-35 38.755000000000003 -1.0000000180025095e-35 337.50000000000006 249.50000000000003 34.025000000000006 29.950000000000003 3.3750000000000004 85.995000000000019 -26.414999999999996 48.845000000000006 3.1750000000000003 32.005000000000003 35.250000000000007 -4.8049999999999988 51.725000000000001 -3.5249999999999995 3.5750000000000006 32.850000000000001 32.515000000000008 345.25000000000006 10.540000000000001 26.050000000000004 2.6050000000000004 114.75000000000001 7.7500000000000009 12.425000000000002 0.99500000000000011 99.250000000000014 -0.074999999999999997 49.500000000000007
decision_type=2 2 2 2 2 2 2 2 2 2 2 2 2 2 2 2 2 2 2 2 2 2 2 2 2 2 2 2 2 2 2 2 2 2 2 2 2 2 2 2 2 2 2 2 2 2 2 2 2 2 2 2 2 2 2 2 2 2 2 2 2 2 2
left_child=1 2 3 5 9 6 7 8 21 10 -5 14 28 -14 18 17 35 -6 -12 -20 -21 -1 26 25 -25 40 41 -10 30 53 31 -13 -27 34 -8 36 37 57 39 -11 -24 -23 43 -9 -45 46 50 48 49 -48 51 52 -44 56 55 -55 -17 -16 59 -29 61 62 -2
right_child=60 -3 -4 4 15 -7 33 42 27 38 11 12 13 -15 16 29 -18 -19 19 20 -22 22 23 24 -26 32 -28 58 -30 -31 -32 -33 -34 -35 -36 -37 -38 -39 -40 -41 -42 -43 45 44 -46 -47 47 -49 -50 -51 -52 -53 -54 54 -56 -57 -58 -59 -60 -61 -62 -63 -64
leaf_value=0.19579851658846367 0.12462905182179547 0.15041956721250271 0.14421200237076079 0.1736733385707365 0.13250783537424682 0.15867960113720944 0.059791458405530275 0.0156325200269916 0.050782666529066711 0.13622646926360549 0.34633381520426376 -0.0061735127949244318 -0.03147178876772333 0.29295373928052371 0.020859311159143551 0.15149821389493129 0.013146703488657201 0.29732668430106879 0.041025504833140533 0.25263840968646772 0.025428694488684112 0.14782539307736137 0.046996681336387562 0.39582398840259997 -0.031618137932483893 0.3287152225322752 -0.020517285075212752 -0.0091198195016562369 0.17430496219824032 0.083555938662228144 0.20856163717277862 0.045387365096124288 0.0026026152250727894 0.14632441784580255 0.20068787427601009 -0.031849006976749195 0.23829395703636477 -0.011432232706299023 0.22068200618690426 -0.032209135030516589 0.22866735581007375 0.32432943678171211 0.076252546205918509 0.2484454050943137 -0.031499396517289779 -0.020236199731489941 0.28467874351957612 0.10480894157073935 0.08094991598622496 0.78472308183302497 0.24190466883787914 -0.016952644306398482 0.46817963887729064 0.069386885091137551 0.1802530628023824 0.19857593355420003 0.067154352078003909 0.19083933658845761 0.53004423384770405 0.25633657883504479 0.15143298119735946 0.1482395016288415 0.14480877544549597
leaf_weight=1089.1896124407649 21138.684708043933 15051.863425336778 15944.017137596384 574.12594074010849 4584.9677372630686 7286.0379410870373 898.23758105002344 1235.4730545151979 1335.0286852847785 762.71521315537393 46.628667436540127 2131.9312749654055 99.349767057225108 189.68918822146952 121.27084105089307 656.07565569505095 250.93299319781363 157.69155153818429 2376.2258993349969 205.26018886454403 141.05839370936155 4631.8218357898295 1384.9241711068898 86.993208311498165 33.006756765767932 112.37480987422168 136.95139143429697 71.39865686930716 188.21701778657734 6634.2253999877721 114.25949590653181 4193.784373447299 47.385272150859237 11101.063513256609 216.35518722236156 82.27416536398232 445.80410220846534 160.20441982336342 346.72069805674255 143.80676230043173 99.42924465239048 100.05998827703297 2294.8353173788637 167.67542840354145 98.11346260458231 283.13048440590501 169.25215095840394 2258.0198054742068 129.01968731172383 19.09614928625524 112.29129687137902 446.18205191753805 21.982697207480669 786.56363966315985 1295.1384440921247 274.5035290773958 1448.3766161873937 635.44689264521003 22.369009084999561 112.18438633345068 35774.043198661879 31198.948894757777 21425.893691137433
leaf_count=3802 162432 74025 33960 2059 35667 40292 9238 23599 19486 6527 157 54632 2385 564 1848 6519 4022 489 47384 1139 2388 29344 20997 147 526 499 2063 1291 1020 89937 739 73025 892 73395 1230 1557 2899 3504 1196 2525 783 597 38186 983 2298 6175 944 35057 1715 49 780 10907 132 11819 8634 1520 25314 5079 96 381 82022 78951 28344
internal_value=0.134733 0.124096 0.119202 0.113069 0.0933316 0.128992 0.121453 0.107013 0.12911 0.0728184 0.0657224 0.0602625 0.041477 0.181717 0.0893488 0.110436 0.135124 0.13805 0.0612756 0.056268 0.160434 0.140811 0.131753 0.0902193 0.278964 0.0762821 0.14678 0.0704203 0.035335 0.0986202 0.031247 0.0280118 0.232607 0.140946 0.0872964 0.156283 0.167656 0.13309 0.140411 0.109501 0.0593116 0.151625 0.0787084 0.0386842 0.145376 0.0891792 0.0948654 0.120916 0.234829 0.339254 0.0714977 0.0644871 0.0801717 0.121001 0.145506 0.102964 0.0935085 0.163662 0.196855 0.153606 0.144059 0.140481 0.13479
internal_weight=205581 96043 80991.1 65047.1 29047.2 35999.9 28713.8 16498.2 9263.12 13209.7 11956.5 11382.3 6917.23 289.039 4465.11 15837.5 1695.93 4742.66 2769.17 2722.54 346.319 7722.14 6632.95 1764.11 120 1644.11 4868.83 1540.98 6628.19 11094.9 6439.98 6325.72 159.76 12215.7 1114.59 1445 1362.73 916.922 1253.24 906.522 1484.35 4731.88 7235.07 1501.26 265.789 5733.81 5450.68 2575.39 317.368 188.348 2875.29 2763 2316.82 4460.66 2356.21 1061.07 2104.45 756.718 205.952 183.583 109538 73763.5 42564.6
internal_count=1180166 828417 754392 720432 394548 325884 285592 201729 80904 214649 204401 202342 132365 2949 69977 179899 18909 36156 51068 50911 3527 59650 55848 23844 673 23171 32004 21254 129416 143743 128396 127657 1391 83863 10468 14887 13330 10431 10248 9052 21780 29941 120825 26880 3281 93945 87770 37765 2708 993 50005 49225 38318 53806 21973 13339 31833 6927 1768 1672 351749 269727 190776
is_linear=0
shrinkage=0.03


Tree=6
num_leaves=64
num_cat=0
split_feature=23 0 40 3 32 6 20 20 39 6 39 5 34 9 37 6 3 13 35 35 31 8 38 32 1 31 35 17 35 2 39 15 32 3 29 3 32 34 39 19 34 29 29 39 39 11 15 39 32 31 40 35 29 13 39 29 27 24 10 33 33 11 40
split_gain=18319.2 10002.2 17664.8 9688.78 13698.3 7043.61 6633.9 6425.85 5798.46 14831.8 7332.26 5939.35 6407.96 5341.62 5214.73 4863.74 4814.9 4695.32 4463.19 4814.97 4440.94 4552.82 4876.66 4339.01 4189.23 4096.35 4266.23 4376.19 4090.56 3895.17 3814.07 4192.51 6387.93 3648.21 3967.83 3626.69 3635.63 3576.48 3521.09 3597.07 3501.06 3573.35 5338.07 3437.19 8110.34 3390.86 3793.15 3277.42 3253.92 3734.47 3607.51 4253.9 3920.06 3194.45 3171.56 3496.37 3532.34 3070.74 3183.62 3056.59 3377.59 3044.07 3027.37
threshold=0.59500000000000008 46.500000000000007 16.500000000000004 37.180000000000007 10.540000000000001 54.625000000000007 2.0950000000000002 1.2350000000000001 -0.53499999999999992 42.750000000000007 -39.044999999999995 43.585000000000008 139.50000000000003 -0.57499999999999984 1.0000000180025095e-35 36.250000000000007 36.070000000000007 38.95000000000001 79.00500000000001 56.785000000000004 31.350000000000005 23.750000000000004 1.0000000180025095e-35 8.0150000000000023 89.750000000000014 43.650000000000013 94.500000000000014 104.50000000000001 81.25500000000001 97.750000000000014 -152.31499999999997 24.250000000000004 16.450000000000003 37.405000000000008 29.025000000000002 37.305000000000007 13.725000000000001 169.50000000000003 -75.824999999999974 90.500000000000014 143.50000000000003 38.625000000000007 38.725000000000009 -6.8149999999999986 -6.6849999999999996 0.48500000000000004 18.250000000000004 -62.819999999999993 10.825000000000001 32.45000000000001 24.500000000000004 84.00500000000001 47.45000000000001 49.900000000000006 -468.03499999999997 29.525000000000002 0.67500000000000016 1.6250000000000002 24.925000000000001 265.50000000000006 295.50000000000006 0.48500000000000004 31.500000000000004
decision_type=2 2 2 2 2 2 2 2 2 2 2 2 2 2 2 2 2 2 2 2 2 2 2 2 2 2 2 2 2 2 2 2 2 2 2 2 2 2 2 2 2 2 2 2 2 2 2 2 2 2 2 2 2 2 2 2 2 2 2 2 2 2 2
left_child=1 2 7 4 5 13 20 8 9 11 17 -1 28 16 38 -10 -4 40 19 -16 21 22 30 43 -21 26 27 29 -13 48 -5 32 53 -12 -35 36 -2 45 39 62 54 -42 -43 -24 -45 46 -7 -19 49 -6 -50 52 -52 -32 -11 56 -56 -27 -59 -40 -61 -14 -15
right_child=35 -3 3 6 25 37 -8 -9 15 10 33 12 61 14 18 -17 -18 47 -20 24 -22 -23 23 -25 -26 57 -28 -29 -30 -31 31 -33 -34 34 -36 -37 -38 -39 59 -41 41 42 -44 44 -46 -47 -48 -49 50 -51 51 -53 -54 -55 55 -57 -58 58 -60 60 -62 -63 -64
leaf_value=0.088472691209242421 0.11636751370391135 0.12717819413071696 0.30426103536380456 0.14828970299817043 0.10091103882121868 0.012228626259897075 0.1593521782438623 0.13744500249579969 0.10784851049637835 0.1752027864420212 0.051452123810783665 0.16877322735545927 0.042501411558427328 0.21991136164066921 0.046557497732175102 0.14058903694147287 0.10419391840250801 0.12245962770351507 0.0040862034115886148 0.099895777418677251 0.12871360078380178 0.14382247344414789 0.030701412008582667 -0.006986951077322898 0.19965607378342881 -0.032386777880022227 0.20275104901469412 0.13600248436312048 0.075162112339695053 0.049477375076531618 0.029635934665313564 0.12337147215451337 0.13290191161820628 0.13183815399848292 0.030235995496919778 0.13203044071687917 0.13110091667741008 0.0055741016899665749 0.0024918841139143165 0.025713256320457088 0.021642890881881705 0.58854807443053503 0.10246395383343172 0.74988282222185809 0.12990633608127847 0.12925120840570631 0.086975212545840785 0.22065713434047388 0.12614531061397785 0.30439692562470094 0.034526220184617831 0.16874622316117222 0.24740428776625306 0.16207455160749015 0.093809282966483748 -0.032093882813339566 0.22026023087018842 0.17513266717163023 0.068619932654076274 0.39642245557960937 0.0065562770895246959 0.15434436198234669 -0.031885417083612505
leaf_weight=2076.1869456879795 42901.156032759696 22054.915837403387 164.18331643752754 894.48710403591394 195.50205807760358 1677.9867235627025 1925.1993312090635 10045.121446901932 8253.2913174498826 506.02846529707313 6058.684982765466 4769.5001148656011 693.0189665351063 232.42435457929969 682.59877428226173 8137.3388826102018 319.51303392276168 973.96303652971983 398.15662197582424 899.39857890456915 3299.723949668929 1122.7923122886568 282.28568389825523 970.46164814569056 659.1043285895139 83.745129719376564 303.27235021628439 1405.2741064205766 463.22424601949751 2627.3351910281926 2381.8696772996336 1463.4606856442988 869.02603573352098 1165.6684628482908 492.76259358227253 54696.773123620078 23399.52120209299 2813.1196042429656 1564.6447938811034 307.47846022620797 935.27938261628151 22.806873461231589 144.40327242016792 19.990291537716985 208.76798176020384 441.33282387815416 960.3088936842978 449.96240157075226 1355.9768986590207 139.74689066410065 1633.7920185755938 290.33830367401242 80.794237274676561 175.11810467764735 3165.1210246086121 184.68621914833784 211.87974750995636 1257.8420964851975 318.20763131789863 37.221072748303413 42.021954508498311 320.04138622619212 52.384847456589341
leaf_count=20301 168346 45674 579 3969 2816 38272 7648 48727 53064 1538 109790 17874 8901 1607 10111 43552 2855 7002 6208 10465 21953 6369 4131 17431 3208 1321 1146 7921 3473 37247 34277 8801 4110 7766 6639 118798 64605 65658 30470 4054 13803 97 1759 25 1667 3007 14595 2106 14540 265 25533 1594 291 1219 26743 3353 602 4532 2797 73 727 1306 855
internal_value=0.118326 0.109196 0.104452 0.0880155 0.0752006 0.0526754 0.107724 0.116026 0.110509 0.100654 0.0821237 0.132506 0.147127 0.0775633 0.0681021 0.124111 0.172591 0.105358 0.0966563 0.113093 0.0992071 0.087586 0.0788767 0.0302867 0.142186 0.101344 0.0924535 0.0880998 0.160502 0.0774345 0.0913152 0.0808641 0.0626758 0.0622593 0.101686 0.126299 0.121569 0.0300318 0.0343726 0.0970228 0.0920381 0.0445622 0.171869 0.100944 0.187112 0.0523639 0.0394582 0.153623 0.0972885 0.186386 0.0883482 0.062735 0.0446958 0.038766 0.104892 0.0948557 0.101806 0.144283 0.153685 0.0117547 0.192338 0.0779517 0.173649
internal_weight=226678 105681 83625.9 34556.9 20943.7 11251.9 13613.2 49069 39023.8 22633.2 14311.2 8321.97 6245.78 5359.13 4875.43 16390.6 483.696 6594.13 2639.26 2241.1 11688 8388.26 7265.47 1481.51 1558.5 9691.83 8032.03 7728.76 5232.72 6323.49 5783.96 4889.47 3426.01 7717.12 1658.43 120997 66300.7 5892.75 2236.18 592.288 5170.2 1102.49 167.21 511.044 228.758 3079.63 2638.3 1423.93 3696.15 335.249 3360.9 2004.92 1714.59 2556.99 4067.72 3561.69 3377 1659.79 1576.05 1643.89 79.243 1013.06 284.809
internal_count=1180166 828417 782743 404347 292747 192744 111600 378396 329669 233053 181198 51855 31554 71212 67778 96616 3434 57003 29992 23784 103952 81999 75630 23254 13673 100003 91353 90207 21347 82286 52376 48407 39606 124195 14405 351749 232951 121532 37786 6516 47895 15659 1856 5823 1692 55874 52867 9108 45039 3081 41958 27418 25824 35496 32236 30698 27345 8650 7329 31270 800 10207 2462
is_linear=0
shrinkage=0.03


Tree=7
num_leaves=64
num_cat=0
split_feature=40 40 11 3 32 20 9 39 6 39 14 5 16 32 39 18 18 16 24 3 27 16 3 18 0 39 8 30 20 35 6 15 26 35 35 35 3 29 26 31 18 38 35 18 30 31 29 23 11 35 18 29 29 16 29 18 20 26 32 19 35 30 35
split_gain=17307.7 10747.3 12392.8 7560.44 7590.14 6041.47 5474.83 5411.17 10490.4 9673.03 5365.45 5225.1 4876.75 4810.3 4345.66 4278.01 4430.03 4027.37 4309.67 3872.73 3857.74 3857.73 3732.06 3718.15 4352 3627.2 3510.86 3332.75 4412.47 4315.6 5276.86 3233.27 3970.02 3108.43 3581.77 3365 3820.18 5621.04 3525.32 3105.97 4747.71 8466.34 4172.5 3511.55 4073.3 3674.28 3416.87 3359.33 3106.99 3099.67 3021.08 4444.89 4272.24 3683.63 3658.28 3609.47 3350.44 3010.94 3212.53 3008.51 3003.93 2982.88 2979.94
threshold=45.500000000000007 14.500000000000002 0.055000000000000007 37.180000000000007 9.8300000000000018 1.2350000000000001 -0.94999999999999984 -1.4349999999999998 47.250000000000007 -161.08499999999995 94.65000000000002 38.165000000000006 11.250000000000002 11.220000000000001 -0.70499999999999985 1.0650000000000002 9.8500000000000032 36.250000000000007 2.1750000000000003 38.285000000000004 0.4250000000000001 14.750000000000002 37.705000000000005 1.0000000180025095e-35 68.500000000000014 -39.044999999999995 18.250000000000004 10.325000000000001 1.0250000000000001 80.00500000000001 52.125000000000007 18.250000000000004 3.6050000000000004 77.25500000000001 79.930000000000021 72.00500000000001 36.290000000000006 33.32500000000001 4.495000000000001 32.550000000000004 7.2250000000000005 1.0000000180025095e-35 42.585000000000008 8.7250000000000014 11.415000000000001 27.225000000000005 41.150000000000013 3.0650000000000004 0.48500000000000004 46.010000000000012 7.7250000000000005 42.050000000000004 42.150000000000013 26.250000000000004 34.025000000000006 7.2250000000000005 1.0350000000000004 4.1150000000000011 22.950000000000003 104.75000000000001 64.995000000000019 10.725000000000001 84.995000000000019
decision_type=2 2 2 2 2 2 2 2 2 2 2 2 2 2 2 2 2 2 2 2 2 2 2 2 2 2 2 2 2 2 2 2 2 2 2 2 2 2 2 2 2 2 2 2 2 2 2 2 2 2 2 2 2 2 2 2 2 2 2 2 2 2 2
left_child=1 5 3 4 6 7 14 8 11 -10 26 -1 13 25 -3 33 22 57 49 -11 -15 -5 39 24 -2 59 -9 29 -29 30 -8 -32 -33 35 -35 36 37 -14 -39 40 -17 43 -41 46 45 -45 -42 -43 -46 -19 54 56 -53 -54 -30 -56 -52 -6 -59 -4 -57 -16 -13
right_child=23 2 12 21 17 -7 27 10 9 19 -12 62 15 20 61 16 -18 18 -20 -21 -22 -23 -24 -25 -26 -27 -28 28 50 -31 31 32 -34 34 -36 -37 -38 38 -40 42 41 47 -44 44 48 -47 -48 -49 -50 -51 51 52 53 -55 55 60 -58 58 -60 -61 -62 -63 -64
leaf_value=0.07524628585655492 -0.028886691412567202 -0.020400932820272506 0.11846554793987588 0.077252185706750395 0.086164388630124225 0.12440758639839239 0.098448373688802132 0.1046453824253341 0.12187529694620224 0.064732338116293753 0.14179704086224953 0.13062234365080722 0.064123450845445976 0.083391985132471147 0.19667058847996316 0.12896637642143238 0.025283634301541822 -0.032909794795967902 0.061246331642947793 0.12237367282727273 0.1341469993646873 0.1148331858609771 0.12449689138143963 0.11632460706759405 0.12985203447373891 0.046196689841902221 0.1827345724012524 -0.013306582628736697 -0.031323938275080274 -0.013896981802051372 0.013258908016203517 0.1731577361499842 0.039170058584137572 0.16725169593772049 0.068805735210535748 -0.015556619048561546 0.052560231458134932 -0.031925674860737767 0.33960441302201305 -0.0025947282170914764 0.10252310286909685 0.024589698287978631 0.12031238090564018 -0.015442657595159516 0.048198059961087086 0.089863651240789433 0.16969654732901351 0.12482577347058196 0.13981739728529177 0.1496702506093594 0.35138412241951206 0.66383536431355783 -0.030930163653140268 0.22166410887265772 0.038732658835933409 -0.030004576190240044 0.004768580074543928 0.02526078240514975 0.12215702327672255 0.02450986456574375 0.44910867181216657 -0.032179617681068376 0.037455780395776926
leaf_weight=2143.9547675400972 343.34906049631536 134.9016318321228 1409.318035742268 4608.730964904651 4201.6092389039695 15747.12045706436 2251.1850547492504 19553.42842328921 4024.6858144681901 13328.661636693403 4895.4382907245308 8815.7502754833549 267.12161021865904 3662.9365739822388 452.84785783663392 3217.523208135739 571.41478577256203 87.492134623229504 909.00875263847411 1139.3511835858226 2141.1919149905443 5297.2065479829907 10742.690671274439 92128.563497394323 282.58660192787647 3746.1115706730634 533.24773243814707 1901.6541532706469 57.279807567596436 724.35517342947423 1818.1194139234722 293.43419265002012 616.80497982911766 601.54521144554019 748.04799744300544 474.38513472490013 1749.8558726124465 26.968909299001098 148.49545583315194 255.17725873179734 8448.6076308786869 2162.3034851569682 9569.3856229409575 712.98482923395932 553.06947170756757 511.28222539462149 743.36439363658428 348.73779061436653 842.46594456583261 1770.5851501598954 24.72570263594389 13.176076669245957 84.022742649540305 134.23647669330239 45.45776940882206 13.955397114157675 1030.9308200757951 1752.1200355868787 372.84729891270399 392.74970054998994 70.512639794498682 57.494383988901973 321.20771637558937
leaf_count=20030 4319 2054 7292 44500 51459 54634 22195 98158 20473 161743 9398 37732 2802 26172 1504 14039 4547 1180 7253 3611 5743 34382 24559 126514 202 30069 995 51178 1252 13915 38198 2635 9235 3174 6859 7227 20069 425 373 2220 43779 29723 36833 8120 4973 2723 1989 2011 2849 8473 301 139 2427 948 766 286 22741 26723 1412 4310 231 863 3227
internal_value=0.105598 0.0994052 0.0920693 0.0761395 0.0649656 0.108016 0.0465338 0.1033 0.0946502 0.0807324 0.113605 0.117456 0.100534 0.0830366 0.130916 0.105184 0.108246 0.0846699 0.114872 0.0692797 0.102136 0.0973582 0.10949 0.115829 0.0428707 0.0630416 0.106727 0.0405236 0.0168917 0.0545051 0.0644561 0.0363831 0.0825063 0.0756741 0.112777 0.0568625 0.072532 0.151198 0.282643 0.103594 0.0960117 0.0886002 0.11712 0.0992351 0.0685462 0.0285731 0.107973 0.0385548 0.103568 0.14106 0.0558263 0.0393748 0.158142 0.124726 0.168125 0.255623 0.0132119 0.0714442 0.0423117 0.0980134 0.370527 0.170876 0.127352
internal_weight=246030 153275 82772.4 28724.7 18818.8 70502.8 9725.09 54755.7 29773.6 18492.7 24982.1 11280.9 54047.7 11352.3 645.244 42695.4 38679 9093.66 2767.09 14468 5804.13 9905.94 38107.6 92754.5 625.936 5548.18 20086.7 9079.85 3375.95 5703.9 4979.54 2728.36 910.239 4016.42 1349.59 2666.83 2192.44 442.586 175.464 27364.9 17540.3 14322.8 9824.56 11811.8 2619.8 1224.27 9191.97 2511.04 1395.54 1858.08 1474.3 1287.09 231.435 218.259 187.206 129.926 1055.66 6326.58 2124.97 1802.07 84.468 510.342 9136.96
internal_count=1180166 1049131 639130 346250 267368 410001 170868 355367 246816 185827 108551 60989 292880 73586 4421 219294 178365 96500 16906 165354 31915 78882 173818 131035 4521 41671 99153 166447 80269 86178 72263 50068 11870 40929 10033 30896 23669 3600 798 149259 110206 96167 39053 64433 18665 10843 45768 31734 7822 9653 29091 26556 3514 3375 2535 1283 23042 79594 28135 11602 517 2367 40959
is_linear=0
shrinkage=0.03


Tree=8
num_leaves=64
num_cat=0
split_feature=23 7 20 8 29 31 32 21 39 39 12 6 33 11 39 4 29 20 11 38 15 14 1 7 1 1 18 30 39 31 4 29 29 24 32 24 1 18 31 24 11 25 6 12 18 22 17 20 20 32 31 32 20 22 25 25 18 37 39 5 39 29 4
split_gain=14266.2 9339.24 5587.29 6048.52 5657.31 5818.56 7322.02 4431.18 3778.5 3986.32 5477.9 5728.07 4621.32 3642 3591.83 3233.24 3218.04 3826.51 2768.24 3526.44 3262.46 3628.83 3136.9 3111.05 2741.36 2690.29 2584 2577.17 2517.81 2636.47 2499.57 2569.52 2418.36 2403.4 2388.46 2357.33 2332.86 2262.7 2401.29 2178.32 2205.09 2132.09 2143.66 2108.46 2465.01 2350.7 2119.14 3395.37 2106.45 2101.5 2085.94 2071.96 2041.01 2035.3 1993.88 1984.29 1982.09 2177.87 1980.41 1972.83 2108.41 1971.68 1907.25
threshold=0.59500000000000008 22.125000000000004 1.675 22.250000000000004 28.650000000000002 26.350000000000005 14.550000000000002 0.095000000000000015 -406.14999999999992 -2.7549999999999994 7.4450000000000012 58.125000000000007 245.50000000000003 0.48500000000000004 -12.054999999999998 148.12500000000003 29.025000000000002 0.89500000000000013 0.44500000000000006 1.0000000180025095e-35 14.250000000000002 97.050000000000011 105.75000000000001 18.375000000000004 84.750000000000014 84.250000000000014 6.9250000000000016 14.350000000000003 -60.944999999999993 23.450000000000003 106.12500000000001 32.82500000000001 24.725000000000005 2.3750000000000004 14.950000000000001 1.8750000000000002 76.750000000000014 8.4750000000000014 27.650000000000002 2.5750000000000006 0.99500000000000011 3.5750000000000006 41.750000000000007 7.4450000000000012 8.1750000000000025 121.25000000000001 82.500000000000014 1.2450000000000003 1.8050000000000004 4.5500000000000007 20.750000000000004 6.4500000000000011 1.405 87.250000000000014 3.5750000000000006 3.5750000000000006 9.3500000000000032 1.0000000180025095e-35 -74.11999999999999 97.915000000000006 -0.054999999999999993 55.800000000000004 106.62500000000001
decision_type=2 2 2 2 2 2 2 2 2 2 2 2 2 2 2 2 2 2 2 2 2 2 2 2 2 2 2 2 2 2 2 2 2 2 2 2 2 2 2 2 2 2 2 2 2 2 2 2 2 2 2 2 2 2 2 2 2 2 2 2 2 2 2
left_child=1 2 3 4 8 6 7 13 55 10 11 14 27 16 -10 33 17 -6 19 49 21 23 -23 -21 -20 43 -27 36 -15 -30 31 53 -16 -4 39 -14 -13 58 -39 40 -35 -28 -43 45 -45 46 59 -48 62 -2 -24 -19 -11 -18 -12 -1 57 -38 -25 -7 -61 -32 -41
right_child=18 -3 15 -5 5 25 -8 -9 9 52 54 12 35 28 32 -17 30 51 24 20 -22 22 50 37 -26 26 41 -29 29 -31 61 -33 -34 34 -36 -37 56 38 -40 48 -42 42 -44 44 -46 -47 47 -49 -50 -51 -52 -53 -54 -55 -56 -57 -58 -59 -60 60 -62 -63 -64
leaf_value=0.12974149377846941 0.11835283719192971 0.1019969937145514 0.10841253273084718 0.10636460925755897 -0.006504559148776584 0.018941129578044214 0.089251844177356071 0.10708353831700972 0.091417024379342821 0.094821354436743346 0.13999164459205835 0.0084031925415363057 0.2034065002535225 -0.025209617523106027 0.03150212926164745 0.065661011495279129 -0.032939226201893899 0.23780252258363299 0.098320581377585051 0.051676433675579954 0.096256936018264502 0.01886211375602824 0.12763589156769561 0.14988609649681053 0.11064504249813853 0.054540747617745501 0.11284731550953585 0.29831025240955822 0.10347723203329164 0.0017909118455329185 0.014838041493337598 0.024045332304839642 0.092194811377699637 -0.0071102875399423103 0.11778373177574515 -0.031927041543671153 0.029439549636407183 -0.033591428107058459 0.10128696851345149 0.22540945784916394 0.12448912433375986 -0.0049311307021924497 0.090219408551863001 -0.0082061633493226444 0.13627456698708279 0.081197270577082231 0.035131287853537412 0.18087716132710002 0.066690698460230013 0.099365553622633995 -0.033798307746076117 0.088601539914869173 -0.0068525314265941257 0.094673026809010907 -0.013539007873173451 0.030249153694991978 0.15146210145854166 0.073237350997847284 0.091783879459063342 -0.031936187742826111 0.12468159724406641 0.21004723783694226 -0.033577528524932454
leaf_weight=2159.0084150098264 5928.0337243415415 31695.142278257757 12943.642724314705 6793.3687081746757 184.87804004177451 2029.0656443331391 4233.4488234110177 915.12375236488879 8199.8166124299169 14840.587896255776 1277.2528379559517 1644.6085720807314 233.58873612247407 198.02842953801155 1805.2877254206687 2417.9490604065359 124.32944042235613 167.69500366039574 25655.271067976952 1544.8259139917791 10096.585456037894 1740.9409543778747 449.66653455421329 989.42848382517695 44827.403184197843 1179.9091916903853 4467.9137630555779 33.708322286605835 1466.5167558137327 272.05447300896049 6248.9930059593171 1508.2953846380115 878.6991246715188 598.23606503754854 896.84349087998271 45.487403955310583 2668.3006376922131 197.51237500086427 295.59325862675905 144.05258694663644 140.71850328892469 281.82467885315418 871.54765113815665 125.71565157920122 682.49559266865253 2972.4171029869467 354.51935201697052 241.82046409137547 955.63562098331749 47800.681559991091 85.305606234818697 170.16533179394901 179.71369326487184 1137.0396847166121 80.771672494709492 197.62943472713232 166.57898101396859 1657.4827467668802 1149.0639247167856 99.712905421853065 338.71044795960188 45.923708956688643 30.783752553164959
leaf_count=5678 13241 133893 52117 26535 2783 28554 31009 5580 53914 83009 4209 30653 783 2616 24685 17953 1776 405 65521 16057 27264 22257 1419 4368 80874 12167 19406 174 9180 2952 117084 21277 8038 6248 1792 866 36007 2918 1373 199 167 3273 5240 1481 1900 26593 3844 673 5143 107377 1028 1239 1939 8828 851 1342 891 18692 8052 2074 2293 46 366
internal_value=0.0954275 0.0879609 0.0830876 0.0793905 0.0766287 0.0670701 0.0551733 0.0435689 0.0846613 0.0820885 0.07283 0.0682765 0.0458617 0.0385163 0.0815541 0.0980069 0.0309305 0.103243 0.101951 0.0977288 0.0856009 0.068914 0.0384121 0.0855226 0.10616 0.0816007 0.094975 0.0404444 0.0760354 0.0875754 0.0267494 0.0504951 0.051399 0.102981 0.0775352 0.165072 0.0389797 0.105364 0.0473031 0.0581736 0.0180845 0.103451 0.0669854 0.068299 0.113819 0.0621864 0.0437224 0.0944362 0.0843394 0.101463 0.101879 0.16314 0.0936045 0.0820785 0.130857 0.121414 0.0501691 0.0462343 0.118724 0.0314326 0.0890696 0.0162953 0.179878
internal_weight=263763 123003 91307.9 73180 66386.7 30318.1 16672.5 12439 36068.5 33711.9 18691.6 17333.6 6449.76 11523.9 10883.8 18127.9 9587.32 522.738 140760 70277.6 16548.9 6452.34 2275.91 4176.42 70482.7 13645.7 6801.2 6170.68 1936.6 1738.57 9064.58 2769.66 2683.99 15709.9 2766.27 279.076 6136.97 2631.6 493.106 1869.43 738.955 5621.29 1153.37 6844.46 808.211 6036.25 3063.83 596.34 1130.47 53728.7 534.972 337.86 15020.3 1261.37 1358.02 2356.64 4492.36 4325.78 2138.49 2467.49 438.423 6294.92 174.836
internal_count=1180166 828417 694524 610539 584004 312273 204775 173766 271731 264711 179763 174703 88066 168186 86637 83985 153438 4427 351749 205354 84736 57472 24704 32768 146395 107498 40086 86417 14748 12132 149011 31881 32723 66032 13915 1649 86243 16711 4291 12123 6415 27919 8513 67412 3381 64031 37438 4517 5708 120618 2447 1644 84948 10604 5060 7020 55590 54699 12420 32921 4367 117130 565
is_linear=0
shrinkage=0.03


Tree=9
num_leaves=64
num_cat=0
split_feature=40 4 1 39 39 27 5 1 8 39 1 29 35 3 3 31 26 25 12 3 19 32 29 16 25 3 35 7 34 3 19 32 32 22 38 1 17 31 13 12 3 29 29 24 20 35 12 23 12 22 32 22 39 16 34 3 15 35 29 22 39 39 17
split_gain=17212.1 10552.9 7599.94 8233.09 9325.56 5079.14 5229.26 6291.94 4779.16 4333.24 4324.31 3799.46 3639.12 3459.07 3736.66 3294.48 2925.19 3167.28 3192.66 2763.54 2695.6 4422.59 2686.24 4030.41 3729.12 2836.77 2672.71 2665.14 2657.43 2554.96 2882.08 3120.99 2532.69 2525.48 2524 2805.26 2722.72 3041.08 2484.64 2470.73 3017.01 2727.03 2438.36 3732.72 6651.2 3456.31 2577 2451.49 2404.59 2384.79 2964.34 2460.73 2655.02 4465.52 2921.05 2837.53 2497.89 2333.87 2270.99 2262.04 2203.08 4765.92 2224.37
threshold=45.500000000000007 104.62500000000001 109.75000000000001 -2.7549999999999994 -149.07499999999996 0.62500000000000011 77.585000000000022 74.250000000000014 12.750000000000002 1.0000000180025095e-35 77.250000000000014 29.225000000000005 73.195000000000007 35.910000000000004 38.285000000000004 33.550000000000004 3.7750000000000004 8.1500000000000004 7.4350000000000014 37.405000000000008 87.500000000000014 11.15 26.625000000000004 13.750000000000002 3.7500000000000004 37.855000000000011 61.735000000000007 8.8750000000000018 119.25000000000001 37.855000000000011 100.25000000000001 13.850000000000003 17.025000000000002 121.25000000000001 1.0000000180025095e-35 96.250000000000014 34.500000000000007 32.350000000000001 24.050000000000004 7.4250000000000007 35.910000000000004 37.95000000000001 34.350000000000001 2.0750000000000006 2.0950000000000002 65.00500000000001 7.4150000000000009 4.5850000000000009 7.4650000000000007 132.25000000000003 12.325000000000001 109.25000000000001 -1.0000000180025095e-35 16.750000000000004 402.50000000000006 36.785000000000004 16.500000000000004 79.445000000000007 43.350000000000001 321.25000000000006 -27.334999999999997 -10.174999999999999 40.500000000000007
decision_type=2 2 2 2 2 2 2 2 2 2 2 2 2 2 2 2 2 2 2 2 2 2 2 2 2 2 2 2 2 2 2 2 2 2 2 2 2 2 2 2 2 2 2 2 2 2 2 2 2 2 2 2 2 2 2 2 2 2 2 2 2 2 2
left_child=1 10 3 4 11 6 13 -8 9 15 -1 -3 16 -6 26 22 59 18 -18 20 21 38 -5 24 39 42 33 -7 -17 30 31 -13 57 -15 -12 36 37 -36 -2 40 -24 -42 43 44 47 -45 -47 -25 49 51 -51 52 54 55 56 -54 -44 -14 -30 -9 -29 -62 -63
right_child=19 2 -4 8 5 27 7 12 -10 -11 34 29 32 14 -16 28 17 -19 -20 -21 -22 -23 23 25 -26 -27 -28 60 58 -31 -32 -33 -34 -35 35 -37 -38 -39 -40 -41 41 -43 48 45 -46 46 -48 -49 -50 50 -52 -53 53 -55 -56 -57 -58 -59 -60 -61 61 62 -64
leaf_value=0.079240960278037217 0.050284513414032062 0.097036994769227461 0.095399825621985207 0.086712503096238069 0.10833651617390776 0.13066487204286154 0.0092706485217544064 0.055634756719080303 0.11072198552593558 -0.033153460429963144 0.10041242496180405 0.090138598966398656 0.086384556220088796 0.049622481421675545 0.11635122513582906 0.05981370982595631 0.012983276050347639 0.14790042669042316 0.078555973537455234 0.10248984406746667 0.096736452425174382 0.096987645967558878 0.10470742415252461 -0.0014050999409011391 -0.016824350303805437 0.10371712133095996 0.063828602514657926 0.089011468657883952 0.10517928452652116 0.10718654220495506 0.0055516276244306547 -0.0078642469346638603 0.12806296749114857 -0.019679252461033862 0.023394758388919145 0.10074679179859576 0.09475451231217874 0.086620353236275663 0.082266261259873436 0.088741433720976842 0.049354845327397402 -0.010620713005487942 -0.013810129191305847 0.11668327197908504 0.098084684976970274 0.028753298031601579 0.1087323190200494 0.14485200595486702 -0.034414528058668507 0.066434062126230556 0.13258123327908011 0.021318903534781126 -0.030481726003239427 0.072667572207641196 0.18223401077811821 0.43607658251604875 0.088679564691805005 0.035660205523515003 -0.033852664185321964 0.20173642127156791 0.016568276904578488 -0.033610484989377659 0.084843514658817024
leaf_weight=18373.41303585656 4044.127757595852 9226.5535797476768 15642.900974608958 11862.924296906218 1608.7395851127803 753.74333928339183 4202.6845434065908 4803.3926119226962 4685.3517258390784 308.51463998481631 33723.519767278805 1394.9481049776077 1890.5115606989712 1296.2237141150981 972.59176464006305 1540.4468511007726 4595.5553065687418 186.71366522274911 781.10966708138585 43429.526273364201 42548.363164318725 9700.8199810087681 690.40092493407428 2049.2480342295021 668.63623830117285 3072.2988463193178 6348.276208171621 3785.2646859977394 7328.6557413395494 814.5087085776031 984.84445280581713 369.76964535564184 679.39788840711117 744.38721512630582 1742.4302858002484 4026.6782125532627 1877.8613922540098 1128.017748804763 4777.7929343357682 1693.2451099976897 3317.1769222728908 858.53884507715702 343.09567053243518 1423.2673010285944 1047.0127244964242 1182.7042332217097 522.60844678245485 107.60848392546177 141.58264828287065 943.49994538724422 1741.301071241498 713.92453139089048 13.944478344172238 121.13167935796082 179.6958876773715 68.972355090081692 566.83131630718708 1440.2555606029928 106.85198906622827 96.473246773704886 1628.6770925447345 149.02420829609036 3111.2361638788134
leaf_count=106783 18674 41040 57940 60062 12114 1406 72542 54264 10845 4199 98891 12171 17088 14676 2319 8652 63895 557 5686 35351 54870 13306 3727 22791 8727 4916 63228 18734 30965 1695 9718 3941 2513 11625 22459 16589 6044 9617 8834 7538 30799 12727 5627 6672 3744 10073 2315 152 1461 8860 5747 8599 250 944 219 184 3362 17106 1315 429 14920 2023 21646
internal_value=0.0870518 0.0813153 0.075959 0.0728914 0.0646328 0.0573515 0.0512483 0.0415875 0.0819456 0.0787791 0.091416 0.0868703 0.0509701 0.0676899 0.0606941 0.0795962 0.04165 0.026756 0.0225224 0.0966948 0.0925721 0.0830015 0.0752451 0.0689042 0.0506457 0.0781685 0.0542282 0.0765357 0.0957426 0.0605311 0.0466763 0.0696108 0.0752716 0.0243449 0.0966776 0.0823143 0.0666652 0.0482624 0.0676126 0.0575248 0.0466465 0.0370241 0.0711305 0.0588624 0.0360843 0.0821697 0.0533129 0.00595561 0.087186 0.0908616 0.109369 0.0660691 0.0907294 0.189871 0.0720065 0.358185 0.0500622 0.0644681 0.103177 0.0585519 0.0718176 0.0584898 0.0794204
internal_weight=280180 175679 114807 99164.4 51864.9 39074.3 29646.3 18676.1 47299.5 42614.1 60871.9 12790.6 14473.4 10970.2 9361.48 42305.6 10463.2 5563.38 5376.66 104501 61071.1 18522.7 33329.6 21466.7 7228 14238.7 8388.89 9427.95 8975.95 3564.07 2749.56 1764.72 4010.17 2040.61 42498.5 8774.99 4748.31 2870.45 8821.92 6559.36 4866.12 4175.72 11166.4 6332.45 3203.87 3128.58 1705.31 2156.86 4833.98 4692.4 2684.8 2007.6 1293.67 204.049 1089.62 82.9168 909.927 3330.77 7435.51 4899.87 8674.2 4888.94 3260.26
internal_count=1180166 1049131 788748 730808 465336 396771 338042 234080 265472 254627 260383 68565 161538 103962 91848 250428 124831 70138 69581 131035 95684 40814 209496 149434 63518 85916 89529 58729 40932 27525 25830 16112 36707 26301 153600 54709 38120 32076 27508 54791 47253 43526 81000 45747 26687 19060 12388 22943 35253 33792 14607 19185 10586 1378 9208 434 8989 34194 32280 54693 57323 38589 23669
is_linear=0
shrinkage=0.03


Tree=10
num_leaves=64
num_cat=0
split_feature=40 4 3 40 11 32 2 39 39 14 16 21 26 15 18 8 39 16 30 30 12 17 28 19 35 18 35 3 17 11 40 35 16 18 34 14 32 11 35 35 16 3 9 35 29 20 20 35 3 18 30 3 8 38 27 31 26 34 29 39 11 24 16
split_gain=16664.6 8245.74 6412.88 9936.72 8193.21 4820.37 4898.54 4750.82 8363.55 4249.13 4158.47 3984.72 3492.71 3435.42 3431.11 3040.94 2948.79 2857.01 3099.39 3637.8 2849.34 2763.73 2605.3 3612.81 2678.38 3022.77 3117.86 2975.94 2554.62 2467.43 2462.99 2865.7 2389.89 2378.82 3179.62 2365.97 2322.66 2303.13 2273.64 2883.41 2183.31 2177.29 3811.99 2740.11 2646.46 3634.97 2502.96 2141.89 2120.69 2015.1 2008.64 1976.28 1974.34 2688.08 2546.83 2317.26 3643.78 2775.96 3039.17 2684.29 2512.65 2209.8 2142.79
threshold=48.500000000000007 98.585000000000022 37.705000000000005 18.500000000000004 0.055000000000000007 9.9500000000000011 95.750000000000014 -2.1749999999999994 -36.474999999999987 94.450000000000017 16.750000000000004 0.075000000000000025 4.0950000000000006 21.500000000000004 9.8500000000000032 20.750000000000004 -802.66999999999996 41.500000000000007 11.125000000000002 15.850000000000003 7.4050000000000011 29.500000000000004 0.015000000000000001 87.500000000000014 83.175000000000026 8.8250000000000011 47.915000000000006 36.945000000000007 70.500000000000014 0.48500000000000004 34.500000000000007 43.505000000000003 19.750000000000004 8.2250000000000014 116.50000000000001 96.950000000000017 11.450000000000001 0.48500000000000004 51.995000000000012 75.895000000000024 21.750000000000004 36.855000000000011 -0.87499999999999989 78.555000000000021 42.050000000000004 1.1850000000000003 3.7950000000000004 94.500000000000014 38.445000000000007 10.850000000000003 14.65 37.605000000000011 10.750000000000002 1.0000000180025095e-35 5.8500000000000005 40.150000000000013 4.4750000000000005 73.500000000000014 32.125000000000007 -3.6349999999999993 0.32500000000000007 2.2750000000000004 47.750000000000007
decision_type=2 2 2 2 2 2 2 2 2 2 2 2 2 2 2 2 2 2 2 2 2 2 2 2 2 2 2 2 2 2 2 2 2 2 2 2 2 2 2 2 2 2 2 2 2 2 2 2 2 2 2 2 2 2 2 2 2 2 2 2 2 2 2
left_child=1 21 3 7 5 11 38 8 17 15 13 16 47 20 52 22 -5 18 -3 -20 37 -1 24 -24 25 26 27 -9 29 -27 50 -32 48 -8 -35 -33 -15 -6 -7 -40 -30 42 43 -18 46 -46 -43 -13 -4 -10 -22 -2 53 54 -12 56 57 58 -55 60 -58 -57 -62
right_child=51 2 32 4 10 6 33 9 49 -11 14 12 -14 36 -16 -17 41 -19 19 -21 30 -23 23 -25 -26 28 -28 -29 40 -31 31 35 -34 34 -36 -37 -38 -39 39 -41 -42 44 -44 -45 45 -47 -48 -49 -50 -51 -52 -53 -54 55 -56 61 59 -59 -60 -61 62 -63 -64
leaf_value=0.079856168107498668 0.086754115908034266 0.080879375189934544 0.071960126708222508 0.15986527892385127 -0.0069152602414428782 0.026662590816115939 0.059548147730134331 0.07082620525564709 0.049264693678773903 0.10543107177346979 0.080626692854278204 0.11999798126639911 -0.032295011142508434 0.048665415024387239 -0.028768479280630501 0.1339790908547876 0.011266774411382404 0.10942249752249809 0.024424677385561575 0.26067788154248389 0.029160029755432148 0.094660914480316619 0.11117803904836467 -0.035242393687605192 0.026845076295354757 -0.014704538322982427 0.086637218538894001 0.0078762772774468807 0.0045043409570056396 0.085806366869441902 0.13867112681422181 0.004967201849084636 0.094977789571959292 0.11122074070199049 0.010100566389831882 0.094468137798091836 0.091891723808414649 0.041962777921427094 0.11546407674850052 0.037875857502453543 0.10910609804074649 0.020559147825475799 -0.0014895756004005231 0.18865568440528191 -0.030966761213164874 0.29488596811012252 0.094540199677509637 0.39697330809200726 0.093857825263231789 0.14248413487712874 0.18906001590418195 0.095495221392697324 0.096088374703983459 -0.033535966111059828 -0.027666207405340541 0.033427795065468634 0.16284769654459066 -0.010295012055912529 0.2219948852589704 0.11513350129770583 -0.0046624363158624983 0.12861476059549143 0.1170728986884108
leaf_weight=29474.320065218955 68551.514645021409 13433.370875131339 16146.179480595514 133.77617677673697 1552.2365715950727 460.53140679188073 3079.0969410184771 2613.2792802806944 13895.958621893078 6813.5839591026306 12321.619667164981 479.16839121840894 144.1602205298841 1993.8915312513709 282.07508542388678 852.03291573747993 146.37712115421891 2809.4326039850712 1377.6595164760947 60.287691745907068 1856.9598732329905 18540.682226292789 2687.5981806274503 160.28649372979999 1108.9596835616976 857.02967615611851 12115.560722561553 911.9287131074816 252.17790570668876 294.54850423894823 583.1782683506608 464.94608824327588 10316.565935872495 314.09194073081017 2505.5663870554417 620.06339296884835 2561.0860260669142 1965.4958413392305 2042.401330191642 547.9569013863802 623.66216766089201 2774.921132620424 4543.3199169486761 168.02289691194892 49.80099000968039 79.059692969545722 482.47990689426661 25.779310425743461 5303.5617948807776 211.18794897384942 72.554195526987314 35489.293485473841 3779.6285931579769 70.525337692350149 198.15137911215425 355.81168977543712 123.68311487138271 1320.353148246184 101.33696119859815 675.02351460047066 683.05158909410238 575.79077807441354 159.7408195771277
leaf_count=132305 83449 75567 58596 419 21008 5379 28468 13311 159671 12988 50815 4291 2449 10926 2790 1356 1627 7175 15918 120 18048 43509 10147 1462 8215 10232 55381 7203 2400 1048 1797 5219 20614 1965 35320 3883 7988 17245 13408 5580 1281 44379 88558 443 1232 361 3416 125 9535 747 237 22337 12997 843 1499 2527 450 15838 154 3133 8610 1595 577
internal_value=0.0800732 0.0748132 0.0712027 0.0678094 0.0579312 0.0416918 0.0572935 0.0759422 0.0679042 0.0846629 0.0669629 0.0262189 0.0977714 0.0526392 0.0750563 0.0783629 0.020664 0.0816513 0.0763979 0.0345042 0.0396065 0.0855748 0.0761656 0.102928 0.0721014 0.0749402 0.0794089 0.0545487 0.0404443 0.0110561 0.0583761 0.0850676 0.083097 0.0413198 0.0214001 0.0561553 0.0729847 0.020399 0.0881543 0.0990722 0.0790279 0.0183861 0.00551143 0.106365 0.0368481 0.169684 0.0315427 0.134895 0.0773786 0.0506702 0.0352675 0.0897367 0.0764957 0.0720252 0.0789107 0.0508061 0.038435 0.00449785 0.117548 0.0692642 0.0371414 0.0923343 0.0185224
internal_weight=295194 191154 143139 111372 50293.7 17976.5 8949.64 61078.5 31787.9 29290.6 32317.2 9026.87 649.108 11670.4 20646.8 22477.1 8377.76 17680.8 14871.3 1437.95 7115.43 48015 21625 2847.88 18777.1 17668.2 15640.8 3525.21 2027.42 1151.58 3597.7 1668.19 31766.3 5898.76 2819.66 1085.01 4554.98 3517.73 3050.89 2590.36 875.84 8243.98 4857.72 314.4 3386.26 128.861 3257.4 504.948 21449.7 14107.1 1929.51 104041 20364.7 16585.1 12519.8 4065.32 3133.71 1492.22 171.862 1641.5 966.476 931.602 842.792
internal_count=1180166 1074380 898566 809821 425599 237420 90120 384222 259198 125024 188179 147300 6865 86351 101828 112036 140435 98780 91605 16038 67437 175814 110680 11609 99071 90856 75895 20514 14961 11280 29184 10899 88745 65753 37285 9102 18914 38253 24367 18988 3681 140016 90628 2070 49388 1593 47795 4416 68131 160418 18285 105786 99038 86041 52314 33727 29605 16835 997 12770 9637 4122 9187
is_linear=0
shrinkage=0.03


Tree=11
num_leaves=64
num_cat=0
split_feature=40 1 39 6 1 39 37 3 35 17 12 35 35 3 15 31 29 15 0 23 12 39 24 34 23 23 16 7 22 22 11 6 34 3 24 35 6 29 35 39 22 33 39 39 29 26 16 32 12 35 38 34 32 3 11 35 24 9 40 35 15 39 38
split_gain=16288.6 9164.26 7053.98 10745.2 6235.83 4559.18 5572.78 3128.64 3205.29 4138.71 4578.36 4017.03 3362.97 4111.04 2867.94 2763.43 3461.93 5485.25 3350.21 3118.18 2924.37 3726.17 2938.03 2742.9 2682.2 2834.67 2608.41 2554.08 2525.09 2519.35 2458.93 2912.47 3575.17 2495.12 2383.71 2377.58 3419.4 2702.3 2283.31 2632.95 2280.88 2275.15 2272.85 2278.77 2207.7 2202.96 2152.85 2124.93 2094.32 2083.35 2054.06 2053.65 2035.36 2018.36 2009.4 2004.57 1979.22 1966.34 1963.24 1959.46 2975.34 2049.55 1953.6
threshold=48.500000000000007 103.25000000000001 -1.1449999999999998 63.625000000000007 74.250000000000014 -180.07499999999996 1.0000000180025095e-35 38.125000000000007 75.445000000000007 39.500000000000007 7.4450000000000012 80.995000000000019 86.355000000000004 37.155000000000008 13.500000000000002 33.550000000000004 26.925000000000001 9.2500000000000018 29.500000000000004 1.0950000000000004 6.955000000000001 -0.014999999999999998 1.5750000000000004 51.500000000000007 0.85500000000000009 0.87500000000000011 10.750000000000002 20.375000000000004 123.25000000000001 113.25000000000001 0.39500000000000007 59.585000000000008 153.25000000000003 37.960000000000008 2.2750000000000004 66.995000000000019 50.625000000000007 43.250000000000007 75.895000000000024 -149.07499999999996 146.12500000000003 159.50000000000003 -97.094999999999985 -28.434999999999999 29.025000000000002 3.8950000000000005 92.500000000000014 2.2500000000000004 7.4250000000000007 68.205000000000013 1.0000000180025095e-35 237.50000000000003 13.205000000000002 37.225000000000001 0.48500000000000004 33.005000000000003 1.9750000000000003 -3.4749999999999996 23.500000000000004 42.585000000000008 10.500000000000002 -0.094999999999999987 1.0000000180025095e-35
decision_type=2 2 2 2 2 2 2 2 2 2 2 2 2 2 2 2 2 2 2 2 2 2 2 2 2 2 2 2 2 2 2 2 2 2 2 2 2 2 2 2 2 2 2 2 2 2 2 2 2 2 2 2 2 2 2 2 2 2 2 2 2 2 2
left_child=1 2 3 5 54 35 7 8 9 10 23 -10 13 -13 38 16 -4 20 59 52 30 22 -22 27 58 -26 45 42 -29 -14 31 40 49 -34 -28 -1 44 -38 39 -6 -18 57 -7 62 -37 -24 -17 -16 -47 -33 -12 -49 -20 -43 -5 -23 -52 -27 -25 60 -19 -61 -44
right_child=-2 -3 15 4 14 6 -8 -9 11 -11 50 12 29 -15 47 46 17 18 19 -21 21 55 26 24 25 41 34 28 -30 -31 -32 32 33 -35 -36 36 37 -39 -40 -41 -42 53 43 -45 -46 48 -48 51 -50 -51 56 -53 -54 -55 -56 -57 -58 -59 -60 61 -62 -63 -64
leaf_value=0.093713008093528977 0.083520865467732561 0.081126206401726561 0.07910575215906171 0.0047261580880833742 0.066914549463190878 -0.017267989517641347 0.076325005803434723 0.083582083207264027 0.084595238856886287 0.068041197546804238 0.10971863059456187 -0.0065542777776432543 0.024319833508821873 0.069479343056600626 0.12266325724126401 0.084747615917216287 -0.012270094352151579 0.37861220729803463 -0.0052587276033005089 0.075315485781028937 0.01897496719250296 0.085685394293030431 -0.018035160329637558 0.019836992824350419 0.19903197250355964 0.076792506914216935 0.088958243176505983 0.10815430219123692 -0.022465316235675759 0.10583484337535623 0.071744968405256848 0.15769504095752768 -9.4200684940434447e-05 0.12867346530787729 0.040209567631023894 0.094703990879768801 0.027425507904850818 0.29301877648950125 0.070250065932101077 0.027465432931569632 0.045483993326543327 0.017262174214965235 0.10078059736641137 0.025327520070685668 0.040386170750289503 0.016509168474112979 -0.03628351127408859 0.049414284608614086 0.12448184947922296 -0.032301369106059935 -0.016366693520399708 0.083591054322279409 0.063887936871347542 0.10724700026722823 0.048560892046120907 -0.00062684310881154612 0.081006689258499909 0.008814590888630229 -0.021385759899489182 0.027774369068147512 0.10289380214876714 0.080880325943676348 0.028723554472989674
leaf_weight=7314.7613667622209 108360.26081350818 44327.670432221144 20620.765375029296 4166.6454456988722 1909.6761489827186 578.93038674816489 17186.252712190151 3177.754831135273 5151.5242094863206 5460.2032318059355 1038.28824913688 1569.0400291066617 501.81005547195673 1079.720158431679 543.43995828740299 16020.264468375593 2021.8199082110077 34.891250386834145 1053.0204068329185 2042.468806438148 993.95578638091683 301.4560951218009 470.07005713321269 2962.5506551228464 96.959914598613977 464.67332538962364 5519.5667999461293 932.82933231443167 154.99895638972521 1070.2538838610053 1135.5415906365961 363.89105738140643 706.61081428639591 166.5433908328414 1082.1830477770418 3163.4492659457028 1709.5877297986299 34.20308369025588 2072.3608224280179 7517.2303862683475 883.56592966802418 352.42367014288902 947.07164281047881 1903.5467780455947 858.28418758697808 344.97896428965032 132.85824509710073 4646.9775682128966 303.88409496471286 60.205388594418764 292.97379141300917 2405.4742267839611 601.1220831759274 618.38864853978157 1214.908887097612 1214.8786389343441 521.22797361575067 2158.3890142645687 1600.8101624511182 705.85763092897832 2458.5229480564594 9147.6757477652282 528.40967170149088
leaf_count=23440 105786 139051 75147 69372 11381 5871 88653 8843 32193 25748 3023 19216 5145 7612 1627 52520 28303 72 11945 5052 6040 647 4141 39740 114 2334 18664 4020 2081 4293 5169 1220 11943 169 5712 8707 12086 28 17028 91985 8539 3764 3737 23981 5538 2561 984 29788 786 1027 3752 13055 2644 2862 6975 10017 3205 24907 26875 4594 6987 31737 5730
internal_value=0.074147 0.0690836 0.0656675 0.0600438 0.0431559 0.0665599 0.0624571 0.0552681 0.0522647 0.0456459 0.0375718 0.066815 0.0450993 0.024454 0.0511944 0.0728954 0.0695371 0.0632933 0.0756063 0.0505273 0.0506011 0.0599939 0.0675455 0.0314129 0.0207569 0.0397688 0.0737952 0.048837 0.0895395 0.0798469 0.0325913 0.0219975 0.0593539 0.0245857 0.0809745 0.0823467 0.0679123 0.0327999 0.0417379 0.0354632 0.00530329 0.0354179 0.0376303 0.0470384 0.0831249 0.0314024 0.08375 0.065503 0.0671901 0.13071 0.0817495 0.0610816 0.0198929 0.0746321 0.0146292 0.0165777 0.0459918 0.0208815 0.00537469 0.0831101 0.106902 0.0770793 0.075012
internal_weight=308981 200620 156293 87906 24476.7 63429.3 50349 33162.8 29985 20612.7 15152.5 9372.35 4220.82 2648.76 19095.2 68386.6 52233.5 31612.7 16043.6 3696.61 15569.2 10231 8714.64 13300 8254.2 3690.83 7720.68 5045.79 1087.83 1572.06 5338.18 4202.64 1297.25 873.154 6601.75 13080.3 5765.52 1743.79 11499.3 9426.91 2905.39 3593.87 3957.96 3379.03 4021.73 1118.93 16153.1 7595.89 648.863 424.096 1852.49 7052.45 1654.14 970.812 5381.55 1516.33 814.202 2623.06 4563.36 12346.9 2493.41 9853.53 1475.48
internal_count=1180166 1074380 935329 638709 241211 397498 347699 259046 250203 181744 155996 68459 36266 26828 164864 296620 243116 167969 63031 19641 104938 48568 37904 146016 100596 33981 31864 45420 6101 9438 56370 51201 14359 12112 24376 49799 26359 12114 120394 103366 36842 33867 39319 33448 14245 7488 53504 44470 3347 2247 9980 42843 14589 6626 76347 10664 6957 27241 66615 43390 7059 36331 9467
is_linear=0
shrinkage=0.03


Tree=12
num_leaves=64
num_cat=0
split_feature=40 1 20 39 6 3 4 11 10 22 39 11 17 26 1 31 32 10 34 14 34 39 34 26 20 34 35 10 35 18 35 24 32 19 19 12 9 14 35 29 14 14 34 31 39 27 29 39 32 34 39 28 14 22 34 24 22 39 35 29 32 32 24
split_gain=16056.5 8086.98 6297.1 6781.45 8535.61 6005.62 4893.72 4329.24 3880.48 4766.24 3813.58 3225.06 3063.31 4113.2 3057.83 2923.02 2913.49 2756.35 2723.19 4695.91 3469.29 3263.23 2855.68 2707.39 3691.55 2634.46 2609.67 2604.08 2504.05 2466.93 2885.25 2461.36 4212.92 2455.78 2371.22 3130 2522.11 2366.03 2285.74 2216.14 2322.01 2282.82 2208.37 2204.02 3390 3139.65 2327.17 2393.51 2189.26 2776.37 2184.39 2179.5 2134.95 2102.15 2100.26 2073.27 2065.38 2050.38 2034.44 3341.49 2723.84 3056.04 2405.45
threshold=49.500000000000007 106.25000000000001 1.2350000000000001 -1.4349999999999998 46.625000000000007 38.285000000000004 141.12500000000003 0.055000000000000007 19.425000000000004 131.12500000000003 -521.4849999999999 0.39500000000000007 58.500000000000007 3.6050000000000004 79.750000000000014 23.250000000000004 10.625000000000002 27.950000000000003 243.50000000000003 96.950000000000017 87.500000000000014 -70.169999999999987 244.50000000000003 3.4050000000000007 0.60500000000000009 312.50000000000006 85.675000000000026 39.500000000000007 94.500000000000014 8.9250000000000025 63.005000000000003 2.3750000000000004 13.315000000000003 102.75000000000001 102.75000000000001 7.3950000000000005 0.95000000000000007 95.250000000000014 28.005000000000006 32.515000000000008 93.450000000000017 97.125000000000014 429.50000000000006 28.350000000000005 -0.034999999999999996 0.82500000000000007 30.525000000000002 -0.054999999999999993 12.325000000000001 259.50000000000006 -1.0000000180025095e-35 35.945000000000007 99.050000000000011 101.25000000000001 564.50000000000011 2.7750000000000004 255.25000000000003 -126.94499999999998 73.995000000000019 33.925000000000004 8.5150000000000023 9.4200000000000017 1.8750000000000002
decision_type=2 2 2 2 2 2 2 2 2 2 2 2 2 2 2 2 2 2 2 2 2 2 2 2 2 2 2 2 2 2 2 2 2 2 2 2 2 2 2 2 2 2 2 2 2 2 2 2 2 2 2 2 2 2 2 2 2 2 2 2 2 2 2
left_child=1 2 3 4 14 7 28 10 37 11 -6 16 13 39 33 17 -10 42 19 20 -9 -20 -23 24 56 29 34 52 31 30 -14 38 53 -1 36 57 -22 43 -4 40 -12 -42 -13 46 45 -45 47 -5 49 -18 -17 -32 58 -33 -41 -25 -21 -36 -15 -60 -61 62 -62
right_child=-2 -3 6 8 5 -7 -8 18 9 -11 12 15 25 27 -16 50 48 -19 21 23 26 22 -24 55 -26 -27 -28 -29 -30 -31 51 32 -34 -35 35 -37 -38 -39 -40 54 41 -43 -44 44 -46 -47 -48 -49 -50 -51 -52 -53 -54 -55 -56 -57 -58 -59 59 60 61 -63 -64
leaf_value=0.061935671806588814 0.078311716939613807 0.076667780844286909 -0.020966591208622716 0.092836770477378122 0.09013199889589911 0.081163288418500845 0.049587656855485711 0.075094281236792335 0.0014282519500554212 0.070472728169201998 0.035193289916778191 -0.031853012187925835 0.0964949877907888 -0.015273952916742757 0.078058462940337234 0.066621043068427171 0.10607626377385213 0.067537527023430716 0.034889108127111969 -0.0041711759040910824 0.038553117460423537 0.21057778439895974 0.080309274215445828 0.011086498055974397 0.1130079886607265 -0.023796887163881026 0.10018430481553822 0.17155618457101082 0.12202264794084207 -0.012957803256270981 0.0096036760365279406 -0.0071246253177389115 0.081514105355104644 0.02114722221065243 0.097815018028143422 -0.012087834601340927 0.10486053342340418 0.087041623411565378 0.077017450896874798 -0.022013874829960728 0.17280103275571004 -0.013648715331116616 0.11196430163672452 -0.023600142220051086 0.096618065961989033 0.080429544200422365 0.03941569839098695 0.061568610545599527 0.023967267724339204 -0.024435765805378575 -0.033864333922100913 0.19122319285547229 0.16929763276521989 0.047472984676914499 0.22908070473976869 0.10089529672910884 0.19756157587202977 0.028747835168725665 -0.0090333612762705552 -0.031231079264407168 0.33337582194151211 0.075192538372070086 -0.029851059989729985
leaf_weight=7014.2548357825726 110322.97762839496 38296.284893643111 215.19867405109107 2753.364485565573 895.29636510647833 3582.6503303125501 8783.1603191141039 4804.6035159286112 2417.939137076959 11848.987872796133 7735.7417439036071 812.30892913974822 1649.8727265186608 3922.1154712233692 11007.943321773782 6721.8308735154569 806.60798317939043 604.29846588894725 1650.537535937503 585.26940020360053 1642.3453104291111 158.82578403130174 3060.253711855039 5277.3708632271737 657.60815627127886 348.3672574646771 626.8452815413475 77.919193290174007 961.95107018947601 331.22961208038032 683.59296132437885 778.69707090593874 3623.4950694479048 1640.5233879517764 488.52361025288701 1519.1544375941157 753.47656351514161 7661.3721699994057 35156.875768806785 812.69276268407702 211.79790428653359 81.633477929979563 107.98114058375359 448.86268347688019 4246.6182120218873 621.97670971602201 3211.5424439143389 11130.090204004198 1394.7312986031175 178.85168115608394 199.93375869467854 64.147075025364757 63.685758475214243 3425.1912147663534 30.130331516265869 240.97992497868836 48.53944830223918 1852.143808150664 896.93854022398591 134.72213358432055 84.057268610224128 299.99532260745764 20.138034300878644
leaf_count=42095 98950 107860 1866 9952 2697 8065 52306 22481 31334 50689 92089 7214 12573 72435 43882 23135 4092 2126 9730 5814 14114 205 14538 52623 2509 4908 1477 22 1791 5460 8836 6097 8995 15917 2173 15802 2840 13761 122128 16860 648 904 122 4796 12808 2082 25751 46035 10895 2242 2391 116 307 17583 24 1526 99 17452 14007 3638 337 3406 556
internal_value=0.0690333 0.0641901 0.0614286 0.0576279 0.0510566 0.0438893 0.0700506 0.0406859 0.065364 0.0566473 0.0297747 0.0442742 0.0266728 0.0208536 0.0675635 0.055432 0.0246253 0.0178135 0.0492502 0.0439904 0.0555288 0.0692158 0.0868 0.0241827 0.0632688 0.0538347 0.0418614 0.000468358 0.0741192 0.0637503 0.0743485 0.0730497 0.0578081 0.0542075 0.0360021 0.0214414 0.0594416 0.0726351 0.0764208 0.0334886 0.038346 0.12106 -0.0148752 0.0677068 0.0845895 0.0368422 0.0624507 0.0677759 0.0481797 0.0823888 0.0637141 0.025419 -0.00202167 0.0373604 -0.0127766 0.0150259 0.0115651 0.0431985 -0.00408922 0.0264519 0.0854192 0.124281 0.263558
internal_weight=321687 211364 173068 120123 64955.9 45293.2 52944.6 41710.6 55167.3 25093.5 18344.1 13244.5 17448.8 14371.6 19662.7 8446.35 4798.13 1524.59 23366.5 18496.9 11687.1 4869.62 3219.08 6809.77 1291.42 3077.21 6882.49 5499.57 44161.4 2728.84 2397.61 43199.5 7827.38 8654.78 6255.64 3859.82 2395.82 30073.8 35372.1 8872 8029.17 293.431 920.29 22412.5 5317.46 1070.84 17095 13883.5 2380.19 985.46 6921.76 747.74 5421.65 4203.89 842.823 5518.35 633.809 2340.67 5357.97 1435.85 538.913 404.191 104.195
internal_count=1180166 1081216 973356 762590 513165 411271 210766 403206 249425 134240 239823 83551 237126 205233 101894 34988 48563 9462 163383 138910 76339 24473 14743 62571 8422 31893 53858 94708 158460 26985 21525 156669 32675 58012 52381 35427 16954 115185 123994 110525 93641 1552 7336 101424 19686 6878 81738 55987 17229 6334 25526 8952 94686 23680 16884 54149 5913 19625 94379 21944 7937 4299 893
is_linear=0
shrinkage=0.03


Tree=13
num_leaves=64
num_cat=0
split_feature=40 1 23 40 20 32 31 17 35 38 17 9 35 17 28 35 24 11 11 39 6 38 25 16 16 0 8 32 32 39 28 39 35 30 30 35 31 12 25 35 7 39 39 11 39 29 39 25 32 32 25 10 19 23 23 40 20 13 31 16 2 31 17
split_gain=15899.5 7062.5 5671.48 6795.16 3705.55 4167.16 3631.07 4531.66 3292.61 3015.07 3517.17 3163.67 2804.34 2775.17 2823.27 2698.08 2674.43 2578 2395.46 2345.06 3531.47 2321.65 2312.08 2283.55 2265.19 2540.7 2230.55 2164.56 2578.76 2133.75 2618.92 2129.1 2045.64 2031.37 2028.37 1981.32 2607.44 2331.54 2145.42 1945.38 2151.91 2717.9 3491.29 3662.78 2223.57 1937.37 1935.89 1924.09 2433.52 2266.05 2342.05 1914.67 2250.79 1963.82 2477.98 2087.05 1912.75 1908.18 2204.5 1880.89 1866.48 1865.29 1835.57
threshold=49.500000000000007 103.25000000000001 0.59500000000000008 17.500000000000004 1.7850000000000004 16.350000000000005 31.350000000000005 66.500000000000014 81.25500000000001 1.0000000180025095e-35 42.500000000000007 -3.9749999999999996 47.455000000000005 35.500000000000007 1.0000000180025095e-35 46.010000000000012 2.5750000000000006 0.43500000000000005 0.44500000000000006 -262.11499999999995 49.585000000000008 1.0000000180025095e-35 3.6750000000000003 27.500000000000004 15.750000000000002 23.500000000000004 24.750000000000004 12.325000000000001 11.610000000000001 -3.4149999999999996 4.205000000000001 -3.2949999999999995 46.875000000000007 14.450000000000001 12.025000000000002 76.995000000000019 49.550000000000004 7.455000000000001 0.65000000000000002 50.005000000000003 19.375000000000004 -2.7549999999999994 -68.854999999999976 0.48500000000000004 -2.5449999999999995 33.925000000000004 -180.07499999999996 3.7500000000000004 4.5500000000000007 6.3450000000000006 2.9250000000000003 28.900000000000002 99.750000000000014 0.92500000000000016 2.7650000000000001 35.500000000000007 0.78500000000000014 38.95000000000001 27.550000000000004 58.500000000000007 96.750000000000014 1.0000000180025095e-35 154.50000000000003
decision_type=2 2 2 2 2 2 2 2 2 2 2 2 2 2 2 2 2 2 2 2 2 2 2 2 2 2 2 2 2 2 2 2 2 2 2 2 2 2 2 2 2 2 2 2 2 2 2 2 2 2 2 2 2 2 2 2 2 2 2 2 2 2 2
left_child=1 2 3 13 5 6 7 18 57 -4 11 -11 -6 14 15 61 27 24 19 20 -5 22 -20 -14 26 -26 -9 28 47 30 -16 56 -33 -15 60 36 37 -13 -39 46 41 42 45 -44 -43 -41 -17 48 -8 -50 -51 52 -37 55 -55 -54 -31 58 -7 -34 -25 -1 -27
right_child=-2 -3 9 4 12 8 16 17 -10 10 -12 35 23 33 29 39 -18 -19 21 -21 -22 -23 -24 34 25 62 -28 -29 -30 31 -32 32 59 -35 -36 51 -38 38 -40 40 -42 44 43 -45 -46 -47 -48 -49 49 50 -52 -53 53 54 -56 -57 -58 -59 -60 -61 -62 -63 -64
leaf_value=0.044793803808487076 0.07368265171694105 0.069908441140004746 0.067838196190202094 0.10998593609223514 0.012130040803075634 0.030502159201260638 -0.028711445257115831 0.015800751019041326 0.10420783102032381 0.082878283072276127 0.069529779183590365 0.01984823352926807 0.09792703449703144 0.071956216061987391 -0.021369725556145316 0.12180670551344439 0.10593484241381684 -0.026266492516162178 0.069900630508306291 0.0072526479189517542 -0.014484401351941173 -0.010250546770175914 -0.02262036584407701 0.079167580050141795 0.010162729151124055 0.10612223956303028 0.10999246041755137 0.0047083525018246841 0.10178899730078945 -0.030804609498202212 0.084611607636839128 0.10108567524145097 -0.0037332114392315823 0.007212576602485094 -0.010020653220433488 0.084210624712900542 0.085123955109814631 0.091822624653686791 0.012463385932395704 0.062620862375272729 0.067699491784167481 0.14847091020044212 0.014508310819921291 0.070574477083950857 0.060979218607771252 -0.026126967118713332 0.068813706126143195 -0.0033388605115589201 0.10008013965901245 0.019576953301190358 0.076508097146663234 0.13528890083273842 -0.033421856174785255 -0.020730246883481344 0.074429552143445862 0.19268381298850432 0.30341448982628377 0.0017701240874241392 0.080281761194851142 0.11240794254495218 0.046635342350409115 -0.0045373396014617064 -0.0097346401961916802
leaf_weight=5424.9643082339317 113682.34135102853 48950.29552070424 47521.483173832297 500.91025763750076 1015.6163110807538 1457.5297154672444 311.40115700848401 1227.6879078820348 1262.93819315359 1694.0125581435859 8340.5162477828562 6706.0093281809241 1541.1310927569866 14348.757557358593 1102.1110685244203 813.94497141614556 709.11140026338398 330.5955962613225 1811.4872754756361 10386.77031653747 346.60825279727578 581.41579401493073 280.25698595866561 2914.9309221804142 368.80587805435061 1568.488152762875 276.53226329013705 1030.2938389852643 801.72337302938104 21.382624646648765 258.14706075936556 376.7313607763499 697.73747344501317 450.06589929573238 378.42495986633003 1100.9741000086069 761.2325586155057 852.47055021673441 479.02358820289373 5564.7556830346584 12540.279439473525 267.68969556875527 4837.2748201135546 1338.2807170338929 10449.325164858252 230.0312882065773 2640.0462994743139 674.19960811547935 890.15390611812472 1474.811118979007 1163.6679964866489 283.27437884360552 53.504967000335455 736.66043838858604 368.75168292224407 114.4518910869956 52.63769119977951 655.66144866123796 1780.7860142812133 152.00444648042321 3499.4753497242928 790.11389114893973 133.37371729873121
leaf_count=37183 98950 140055 123345 1449 8663 11770 3871 16244 2872 6689 21344 64526 5946 54685 16788 848 2443 2509 8567 158301 4402 9059 2939 11516 4159 8117 670 9347 2906 410 2001 1312 7832 3461 3632 6041 2592 3262 3747 26732 60212 1327 57907 10709 47039 3353 13841 6954 4364 14558 6586 372 595 8065 1829 208 184 6076 5305 268 20196 7570 1463
internal_value=0.0645739 0.0598602 0.056979 0.052474 0.0427142 0.037576 0.0324842 0.0252672 0.0621196 0.0636191 0.054287 0.0446149 0.0592091 0.058636 0.0551021 0.0568817 0.0506991 0.0538179 0.0172463 0.0111708 0.0591244 0.0427655 0.0574996 0.0649442 0.0612291 0.0815805 0.0331783 0.0445115 0.0522234 0.0250633 -0.00120942 0.0525232 0.0429937 0.0699878 0.0574478 0.0389503 0.032087 0.0270539 0.0633028 0.0598305 0.0577199 0.052201 0.0423687 0.0266677 0.0631782 0.059094 0.0813333 0.0434 0.0516048 0.0586988 0.0447052 0.0616522 0.0528137 0.0256226 0.0110525 0.120883 0.207743 0.0484459 0.0578929 0.0171502 0.0614292 0.0385227 0.0970422
internal_weight=333376 219694 170743 101731 39374.8 30025.2 24868.3 17812.9 5156.92 69012.4 21490.9 13150.4 9349.58 62356.3 47557.5 44896.7 7055.36 3905.48 13907.4 11234.3 847.519 2673.16 2091.74 8333.96 3574.89 2070.67 1504.22 6346.25 5315.96 2660.75 1360.26 1300.49 1226.47 14798.8 6792.83 11456.4 8798.74 8037.5 1331.49 38681.6 35227.6 22687.4 11970.3 6175.56 10717 5794.79 3453.99 4514.23 3840.03 3528.63 2638.48 2657.62 2374.34 1273.37 1105.41 167.957 74.0203 3893.98 3238.32 849.742 6414.41 6215.08 1701.86
internal_count=1180166 1081216 941161 698546 344884 294931 268908 217879 26023 242615 119270 97926 49953 353662 295516 266721 51029 33162 184717 164152 5851 20565 11506 41290 30653 13739 16914 48586 39239 28795 18789 10006 9412 58146 35344 91237 74127 71535 7009 221968 207279 147067 98701 68616 48366 30085 14689 36333 29379 25508 21144 17110 16738 10697 9894 803 594 23151 17075 8100 31712 44753 9580
is_linear=0
shrinkage=0.03


Tree=14
num_leaves=64
num_cat=0
split_feature=40 11 1 39 6 39 30 1 8 39 4 40 35 40 30 4 16 30 39 6 32 35 3 9 40 18 25 0 23 3 40 16 29 30 25 31 32 6 0 13 34 29 16 26 30 10 21 30 10 3 10 32 11 3 37 22 35 35 32 6 35 39 13
